<?xml version="1.0"?>
<opencv_storage>
<cascade>
  <stageType>BOOST</stageType>
  <featureType>HAAR</featureType>
  <height>16</height>
  <width>40</width>
  <stageParams>
    <boostType>GAB</boostType>
    <minHitRate>9.9900001287460327e-01</minHitRate>
    <maxFalseAlarm>5.0000000000000000e-01</maxFalseAlarm>
    <weightTrimRate>9.4999999999999996e-01</weightTrimRate>
    <maxDepth>1</maxDepth>
    <maxWeakCount>100</maxWeakCount></stageParams>
  <featureParams>
    <maxCatCount>0</maxCatCount>
    <featSize>1</featSize>
    <mode>ALL</mode></featureParams>
  <stageNum>20</stageNum>
  <stages>
    <!-- stage 0 -->
    <_>
      <maxWeakCount>21</maxWeakCount>
      <stageThreshold>-1.8972958326339722e+00</stageThreshold>
      <weakClassifiers>
        <_>
          <internalNodes>
            0 -1 290 8.1248842179775238e-03</internalNodes>
          <leafValues>
            1.3262519240379333e-01 -8.4281522035598755e-01</leafValues></_>
        <_>
          <internalNodes>
            0 -1 570 -1.5438575297594070e-02</internalNodes>
          <leafValues>
            2.4862149357795715e-01 -5.5746996402740479e-01</leafValues></_>
        <_>
          <internalNodes>
            0 -1 60 -2.5865549221634865e-02</internalNodes>
          <leafValues>
            3.9384552836418152e-01 -4.0483102202415466e-01</leafValues></_>
        <_>
          <internalNodes>
            0 -1 12 -3.7696264684200287e-02</internalNodes>
          <leafValues>
            6.5461939573287964e-01 -1.4183044433593750e-01</leafValues></_>
        <_>
          <internalNodes>
            0 -1 151 1.7904144525527954e-01</internalNodes>
          <leafValues>
            1.5856777131557465e-01 -6.0001242160797119e-01</leafValues></_>
        <_>
          <internalNodes>
            0 -1 801 -4.3573275208473206e-02</internalNodes>
          <leafValues>
            -7.5815641880035400e-01 1.0262394696474075e-01</leafValues></_>
        <_>
          <internalNodes>
            0 -1 858 -4.2922324500977993e-03</internalNodes>
          <leafValues>
            4.2010179162025452e-01 -1.9587491452693939e-01</leafValues></_>
        <_>
          <internalNodes>
            0 -1 723 -3.2428256236016750e-03</internalNodes>
          <leafValues>
            7.9809689521789551e-01 -9.4078071415424347e-02</leafValues></_>
        <_>
          <internalNodes>
            0 -1 1 1.9290769705548882e-04</internalNodes>
          <leafValues>
            1.7065609991550446e-01 -4.0309476852416992e-01</leafValues></_>
        <_>
          <internalNodes>
            0 -1 1 -9.9944489193148911e-05</internalNodes>
          <leafValues>
            -4.5212078094482422e-01 2.9691901803016663e-01</leafValues></_>
        <_>
          <internalNodes>
            0 -1 626 -4.2421184480190277e-03</internalNodes>
          <leafValues>
            2.6207372546195984e-01 -2.5132909417152405e-01</leafValues></_>
        <_>
          <internalNodes>
            0 -1 448 3.9103420567698777e-04</internalNodes>
          <leafValues>
            1.3447169959545135e-01 -4.8513552546501160e-01</leafValues></_>
        <_>
          <internalNodes>
            0 -1 692 1.5861249994486570e-04</internalNodes>
          <leafValues>
            1.5945491194725037e-01 -4.3459630012512207e-01</leafValues></_>
        <_>
          <internalNodes>
            0 -1 696 -2.9360497137531638e-04</internalNodes>
          <leafValues>
            -4.0854391455650330e-01 1.8166641891002655e-01</leafValues></_>
        <_>
          <internalNodes>
            0 -1 36 2.0625654608011246e-02</internalNodes>
          <leafValues>
            -1.0879424959421158e-01 7.0657145977020264e-01</leafValues></_>
        <_>
          <internalNodes>
            0 -1 410 3.1692846678197384e-03</internalNodes>
          <leafValues>
            -8.9105896651744843e-02 6.1307436227798462e-01</leafValues></_>
        <_>
          <internalNodes>
            0 -1 71 -5.8326022699475288e-03</internalNodes>
          <leafValues>
            -4.9336880445480347e-01 1.2880232930183411e-01</leafValues></_>
        <_>
          <internalNodes>
            0 -1 903 -8.3527620881795883e-03</internalNodes>
          <leafValues>
            2.4302506446838379e-01 -2.6914376020431519e-01</leafValues></_>
        <_>
          <internalNodes>
            0 -1 19 -5.5008172988891602e-01</internalNodes>
          <leafValues>
            -6.4038926362991333e-01 9.8793126642704010e-02</leafValues></_>
        <_>
          <internalNodes>
            0 -1 878 -1.1832662858068943e-03</internalNodes>
          <leafValues>
            1.8675810098648071e-01 -3.4982866048812866e-01</leafValues></_>
        <_>
          <internalNodes>
            0 -1 69 5.6720600696280599e-04</internalNodes>
          <leafValues>
            1.8830321729183197e-01 -3.4761983156204224e-01</leafValues></_></weakClassifiers></_>
    <!-- stage 1 -->
    <_>
      <maxWeakCount>16</maxWeakCount>
      <stageThreshold>-1.9891754388809204e+00</stageThreshold>
      <weakClassifiers>
        <_>
          <internalNodes>
            0 -1 257 -5.1333243027329445e-03</internalNodes>
          <leafValues>
            2.5485625863075256e-01 -6.8260508775711060e-01</leafValues></_>
        <_>
          <internalNodes>
            0 -1 537 -1.0841956362128258e-02</internalNodes>
          <leafValues>
            3.1174266338348389e-01 -5.6191194057464600e-01</leafValues></_>
        <_>
          <internalNodes>
            0 -1 449 -4.1141994297504425e-03</internalNodes>
          <leafValues>
            3.8537272810935974e-01 -4.0353816747665405e-01</leafValues></_>
        <_>
          <internalNodes>
            0 -1 150 -1.5558436512947083e-02</internalNodes>
          <leafValues>
            4.9189972877502441e-01 -3.2192447781562805e-01</leafValues></_>
        <_>
          <internalNodes>
            0 -1 710 -1.8363824114203453e-02</internalNodes>
          <leafValues>
            5.0664818286895752e-01 -2.7807471156120300e-01</leafValues></_>
        <_>
          <internalNodes>
            0 -1 405 1.4108812436461449e-02</internalNodes>
          <leafValues>
            -2.5892332196235657e-01 4.4862514734268188e-01</leafValues></_>
        <_>
          <internalNodes>
            0 -1 791 -6.9705690257251263e-03</internalNodes>
          <leafValues>
            4.6015644073486328e-01 -1.7619386315345764e-01</leafValues></_>
        <_>
          <internalNodes>
            0 -1 287 -9.4591736793518066e-02</internalNodes>
          <leafValues>
            -5.3307902812957764e-01 1.6261525452136993e-01</leafValues></_>
        <_>
          <internalNodes>
            0 -1 835 -9.7662331536412239e-03</internalNodes>
          <leafValues>
            3.0805265903472900e-01 -2.9089185595512390e-01</leafValues></_>
        <_>
          <internalNodes>
            0 -1 8 -1.1620676144957542e-02</internalNodes>
          <leafValues>
            -4.0991479158401489e-01 2.1472661197185516e-01</leafValues></_>
        <_>
          <internalNodes>
            0 -1 339 9.1258706524968147e-03</internalNodes>
          <leafValues>
            -2.0559328794479370e-01 3.8265332579612732e-01</leafValues></_>
        <_>
          <internalNodes>
            0 -1 930 -5.9259787667542696e-04</internalNodes>
          <leafValues>
            2.5179061293601990e-01 -3.2179352641105652e-01</leafValues></_>
        <_>
          <internalNodes>
            0 -1 64 -8.9540511369705200e-02</internalNodes>
          <leafValues>
            4.0336290001869202e-01 -1.8982492387294769e-01</leafValues></_>
        <_>
          <internalNodes>
            0 -1 494 1.1815686710178852e-02</internalNodes>
          <leafValues>
            -2.5931867957115173e-01 3.2130521535873413e-01</leafValues></_>
        <_>
          <internalNodes>
            0 -1 50 -1.0466462001204491e-02</internalNodes>
          <leafValues>
            4.1469827294349670e-01 -1.6771206259727478e-01</leafValues></_>
        <_>
          <internalNodes>
            0 -1 324 1.4707045629620552e-02</internalNodes>
          <leafValues>
            -1.5030694007873535e-01 5.1371651887893677e-01</leafValues></_></weakClassifiers></_>
    <!-- stage 2 -->
    <_>
      <maxWeakCount>26</maxWeakCount>
      <stageThreshold>-1.9355407953262329e+00</stageThreshold>
      <weakClassifiers>
        <_>
          <internalNodes>
            0 -1 542 -6.9257058203220367e-03</internalNodes>
          <leafValues>
            3.5260930657386780e-01 -4.1876047849655151e-01</leafValues></_>
        <_>
          <internalNodes>
            0 -1 256 -2.7168137021362782e-03</internalNodes>
          <leafValues>
            3.1390741467475891e-01 -4.0795013308525085e-01</leafValues></_>
        <_>
          <internalNodes>
            0 -1 388 -9.7762218501884490e-05</internalNodes>
          <leafValues>
            3.0983307957649231e-01 -3.6365160346031189e-01</leafValues></_>
        <_>
          <internalNodes>
            0 -1 856 1.4188976958394051e-02</internalNodes>
          <leafValues>
            -3.8021767139434814e-01 2.6755791902542114e-01</leafValues></_>
        <_>
          <internalNodes>
            0 -1 28 4.3692952394485474e-01</internalNodes>
          <leafValues>
            1.2800203263759613e-01 -8.2579952478408813e-01</leafValues></_>
        <_>
          <internalNodes>
            0 -1 177 -2.0834955573081970e-01</internalNodes>
          <leafValues>
            -7.6075011491775513e-01 1.2554544210433960e-01</leafValues></_>
        <_>
          <internalNodes>
            0 -1 958 -1.0461799683980644e-04</internalNodes>
          <leafValues>
            2.1935163438320160e-01 -3.5494315624237061e-01</leafValues></_>
        <_>
          <internalNodes>
            0 -1 589 -2.8695888817310333e-02</internalNodes>
          <leafValues>
            3.7476769089698792e-01 -2.0333470404148102e-01</leafValues></_>
        <_>
          <internalNodes>
            0 -1 100 -5.8504450321197510e-01</internalNodes>
          <leafValues>
            -7.6485598087310791e-01 1.0229035466909409e-01</leafValues></_>
        <_>
          <internalNodes>
            0 -1 173 -3.3281147480010986e-02</internalNodes>
          <leafValues>
            2.9700431227684021e-01 -2.8510832786560059e-01</leafValues></_>
        <_>
          <internalNodes>
            0 -1 308 -7.6609794050455093e-03</internalNodes>
          <leafValues>
            2.6749652624130249e-01 -3.2438361644744873e-01</leafValues></_>
        <_>
          <internalNodes>
            0 -1 140 -1.3967630267143250e-01</internalNodes>
          <leafValues>
            7.0827454328536987e-01 -1.0235563665628433e-01</leafValues></_>
        <_>
          <internalNodes>
            0 -1 533 1.2200237251818180e-03</internalNodes>
          <leafValues>
            -8.7169311940670013e-02 6.7206197977066040e-01</leafValues></_>
        <_>
          <internalNodes>
            0 -1 954 -1.4024841948412359e-04</internalNodes>
          <leafValues>
            2.5902098417282104e-01 -2.7418854832649231e-01</leafValues></_>
        <_>
          <internalNodes>
            0 -1 631 -9.6082119271159172e-03</internalNodes>
          <leafValues>
            -7.2672188282012939e-01 1.0012740641832352e-01</leafValues></_>
        <_>
          <internalNodes>
            0 -1 596 1.9260734319686890e-02</internalNodes>
          <leafValues>
            7.9517155885696411e-02 -7.4004614353179932e-01</leafValues></_>
        <_>
          <internalNodes>
            0 -1 703 8.6626596748828888e-03</internalNodes>
          <leafValues>
            -1.5609289705753326e-01 4.5313912630081177e-01</leafValues></_>
        <_>
          <internalNodes>
            0 -1 361 -1.7766766250133514e-02</internalNodes>
          <leafValues>
            4.2753276228904724e-01 -1.4474336802959442e-01</leafValues></_>
        <_>
          <internalNodes>
            0 -1 499 1.4438936486840248e-03</internalNodes>
          <leafValues>
            -8.3456285297870636e-02 6.6995567083358765e-01</leafValues></_>
        <_>
          <internalNodes>
            0 -1 524 -1.5962300822138786e-02</internalNodes>
          <leafValues>
            -7.3355638980865479e-01 9.6902973949909210e-02</leafValues></_>
        <_>
          <internalNodes>
            0 -1 516 -1.2374384095892310e-03</internalNodes>
          <leafValues>
            7.1681308746337891e-01 -1.0113456845283508e-01</leafValues></_>
        <_>
          <internalNodes>
            0 -1 606 -1.1964323930442333e-02</internalNodes>
          <leafValues>
            -7.4434810876846313e-01 9.5759011805057526e-02</leafValues></_>
        <_>
          <internalNodes>
            0 -1 841 9.6486136317253113e-04</internalNodes>
          <leafValues>
            -1.0526552796363831e-01 6.7013192176818848e-01</leafValues></_>
        <_>
          <internalNodes>
            0 -1 299 -3.2747953082434833e-04</internalNodes>
          <leafValues>
            1.8037009239196777e-01 -3.4537863731384277e-01</leafValues></_>
        <_>
          <internalNodes>
            0 -1 844 4.7682714648544788e-04</internalNodes>
          <leafValues>
            -1.3752815127372742e-01 4.8301374912261963e-01</leafValues></_>
        <_>
          <internalNodes>
            0 -1 852 2.2445763461291790e-03</internalNodes>
          <leafValues>
            1.4263208210468292e-01 -4.8079672455787659e-01</leafValues></_></weakClassifiers></_>
    <!-- stage 3 -->
    <_>
      <maxWeakCount>34</maxWeakCount>
      <stageThreshold>-1.8543719053268433e+00</stageThreshold>
      <weakClassifiers>
        <_>
          <internalNodes>
            0 -1 906 6.6562801599502563e-02</internalNodes>
          <leafValues>
            -4.2536872625350952e-01 2.7453416585922241e-01</leafValues></_>
        <_>
          <internalNodes>
            0 -1 200 -5.1777597516775131e-02</internalNodes>
          <leafValues>
            3.4050166606903076e-01 -3.2495328783988953e-01</leafValues></_>
        <_>
          <internalNodes>
            0 -1 869 -1.5138577669858932e-02</internalNodes>
          <leafValues>
            2.1464896202087402e-01 -3.8558223843574524e-01</leafValues></_>
        <_>
          <internalNodes>
            0 -1 122 -3.1225597485899925e-03</internalNodes>
          <leafValues>
            1.8114130198955536e-01 -4.1637495160102844e-01</leafValues></_>
        <_>
          <internalNodes>
            0 -1 732 -2.5347009068354964e-04</internalNodes>
          <leafValues>
            -4.1849702596664429e-01 1.6087248921394348e-01</leafValues></_>
        <_>
          <internalNodes>
            0 -1 732 1.9084921223111451e-04</internalNodes>
          <leafValues>
            2.4106095731258392e-01 -4.5432358980178833e-01</leafValues></_>
        <_>
          <internalNodes>
            0 -1 559 4.8443298786878586e-02</internalNodes>
          <leafValues>
            -2.4151790142059326e-01 3.3750662207603455e-01</leafValues></_>
        <_>
          <internalNodes>
            0 -1 12 -3.1692847609519958e-02</internalNodes>
          <leafValues>
            4.6631360054016113e-01 -1.0634610056877136e-01</leafValues></_>
        <_>
          <internalNodes>
            0 -1 74 -2.7443666476756334e-04</internalNodes>
          <leafValues>
            -4.0557441115379333e-01 1.4036150276660919e-01</leafValues></_>
        <_>
          <internalNodes>
            0 -1 74 1.7312195268459618e-04</internalNodes>
          <leafValues>
            1.9325460493564606e-01 -3.6609882116317749e-01</leafValues></_>
        <_>
          <internalNodes>
            0 -1 172 9.8466388881206512e-02</internalNodes>
          <leafValues>
            -1.0882976651191711e-01 5.6897842884063721e-01</leafValues></_>
        <_>
          <internalNodes>
            0 -1 491 2.7321638539433479e-02</internalNodes>
          <leafValues>
            1.1840511858463287e-01 -5.3985315561294556e-01</leafValues></_>
        <_>
          <internalNodes>
            0 -1 850 -4.2758986819535494e-04</internalNodes>
          <leafValues>
            1.6080902516841888e-01 -3.8444256782531738e-01</leafValues></_>
        <_>
          <internalNodes>
            0 -1 460 6.0490868985652924e-02</internalNodes>
          <leafValues>
            -9.7504034638404846e-02 6.3381505012512207e-01</leafValues></_>
        <_>
          <internalNodes>
            0 -1 667 -6.7406366579234600e-03</internalNodes>
          <leafValues>
            -5.2934396266937256e-01 1.0811442136764526e-01</leafValues></_>
        <_>
          <internalNodes>
            0 -1 910 2.5395594537258148e-02</internalNodes>
          <leafValues>
            4.9718528985977173e-02 -7.9769408702850342e-01</leafValues></_>
        <_>
          <internalNodes>
            0 -1 640 -8.9706843718886375e-03</internalNodes>
          <leafValues>
            -7.7365976572036743e-01 4.5632194727659225e-02</leafValues></_>
        <_>
          <internalNodes>
            0 -1 759 2.5237023364752531e-03</internalNodes>
          <leafValues>
            -9.4813987612724304e-02 5.4280281066894531e-01</leafValues></_>
        <_>
          <internalNodes>
            0 -1 602 1.5867177397012711e-02</internalNodes>
          <leafValues>
            1.0363929718732834e-01 -5.3025054931640625e-01</leafValues></_>
        <_>
          <internalNodes>
            0 -1 364 1.6609798185527325e-03</internalNodes>
          <leafValues>
            1.1320810765028000e-01 -4.1658014059066772e-01</leafValues></_>
        <_>
          <internalNodes>
            0 -1 776 9.6746539929881692e-04</internalNodes>
          <leafValues>
            -1.1493261158466339e-01 4.0548196434974670e-01</leafValues></_>
        <_>
          <internalNodes>
            0 -1 599 1.9920807331800461e-02</internalNodes>
          <leafValues>
            -1.6069929301738739e-01 3.0798137187957764e-01</leafValues></_>
        <_>
          <internalNodes>
            0 -1 377 -1.3320946600288153e-03</internalNodes>
          <leafValues>
            1.5088474750518799e-01 -3.5024884343147278e-01</leafValues></_>
        <_>
          <internalNodes>
            0 -1 85 -2.3317956924438477e-01</internalNodes>
          <leafValues>
            6.4406669139862061e-01 -7.7199645340442657e-02</leafValues></_>
        <_>
          <internalNodes>
            0 -1 213 -2.0905998535454273e-03</internalNodes>
          <leafValues>
            2.0421025156974792e-01 -2.8036150336265564e-01</leafValues></_>
        <_>
          <internalNodes>
            0 -1 17 -4.9073320627212524e-01</internalNodes>
          <leafValues>
            -7.4182021617889404e-01 6.5257497131824493e-02</leafValues></_>
        <_>
          <internalNodes>
            0 -1 1 1.8247799016535282e-04</internalNodes>
          <leafValues>
            1.1780650913715363e-01 -3.4696266055107117e-01</leafValues></_>
        <_>
          <internalNodes>
            0 -1 6 -2.0583446894306690e-04</internalNodes>
          <leafValues>
            -3.2970345020294189e-01 2.0425277948379517e-01</leafValues></_>
        <_>
          <internalNodes>
            0 -1 552 -2.2859720047563314e-03</internalNodes>
          <leafValues>
            6.3434332609176636e-01 -8.3739720284938812e-02</leafValues></_>
        <_>
          <internalNodes>
            0 -1 868 -2.4259250611066818e-02</internalNodes>
          <leafValues>
            2.4960774183273315e-01 -1.9388376176357269e-01</leafValues></_>
        <_>
          <internalNodes>
            0 -1 208 3.6375828087329865e-02</internalNodes>
          <leafValues>
            -1.2303148210048676e-01 4.1723960638046265e-01</leafValues></_>
        <_>
          <internalNodes>
            0 -1 56 -2.6351604610681534e-03</internalNodes>
          <leafValues>
            6.8479555845260620e-01 -6.0533471405506134e-02</leafValues></_>
        <_>
          <internalNodes>
            0 -1 495 1.5990089625120163e-02</internalNodes>
          <leafValues>
            7.5781658291816711e-02 -6.8087202310562134e-01</leafValues></_>
        <_>
          <internalNodes>
            0 -1 477 1.5083944797515869e-01</internalNodes>
          <leafValues>
            -8.1168524920940399e-02 6.0038053989410400e-01</leafValues></_></weakClassifiers></_>
    <!-- stage 4 -->
    <_>
      <maxWeakCount>36</maxWeakCount>
      <stageThreshold>-1.5939121246337891e+00</stageThreshold>
      <weakClassifiers>
        <_>
          <internalNodes>
            0 -1 509 6.4602848142385483e-03</internalNodes>
          <leafValues>
            -3.8932147622108459e-01 2.8490027785301208e-01</leafValues></_>
        <_>
          <internalNodes>
            0 -1 270 -1.0670777410268784e-03</internalNodes>
          <leafValues>
            1.6822169721126556e-01 -4.2446383833885193e-01</leafValues></_>
        <_>
          <internalNodes>
            0 -1 898 -2.1127995103597641e-02</internalNodes>
          <leafValues>
            2.3468466103076935e-01 -2.8105536103248596e-01</leafValues></_>
        <_>
          <internalNodes>
            0 -1 882 -1.6582622192800045e-03</internalNodes>
          <leafValues>
            2.6186981797218323e-01 -2.8004020452499390e-01</leafValues></_>
        <_>
          <internalNodes>
            0 -1 946 5.9331465512514114e-02</internalNodes>
          <leafValues>
            5.9927809983491898e-02 -6.4838594198226929e-01</leafValues></_>
        <_>
          <internalNodes>
            0 -1 758 -2.6551255723461509e-04</internalNodes>
          <leafValues>
            -4.2802971601486206e-01 1.3910071551799774e-01</leafValues></_>
        <_>
          <internalNodes>
            0 -1 32 -2.7066630125045776e-01</internalNodes>
          <leafValues>
            -5.3294229507446289e-01 1.1494430154561996e-01</leafValues></_>
        <_>
          <internalNodes>
            0 -1 582 2.0331379026174545e-02</internalNodes>
          <leafValues>
            -1.6247513890266418e-01 4.1448289155960083e-01</leafValues></_>
        <_>
          <internalNodes>
            0 -1 254 -2.9434801544994116e-03</internalNodes>
          <leafValues>
            2.4728760123252869e-01 -2.2527530789375305e-01</leafValues></_>
        <_>
          <internalNodes>
            0 -1 392 -2.6625092141330242e-03</internalNodes>
          <leafValues>
            2.1218211948871613e-01 -2.4329939484596252e-01</leafValues></_>
        <_>
          <internalNodes>
            0 -1 58 -2.0661632716655731e-01</internalNodes>
          <leafValues>
            3.6134320497512817e-01 -1.4601908624172211e-01</leafValues></_>
        <_>
          <internalNodes>
            0 -1 823 1.6952127218246460e-02</internalNodes>
          <leafValues>
            -1.3212122023105621e-01 4.5111635327339172e-01</leafValues></_>
        <_>
          <internalNodes>
            0 -1 655 -6.0370275750756264e-03</internalNodes>
          <leafValues>
            7.3617303371429443e-01 -4.0966346859931946e-02</leafValues></_>
        <_>
          <internalNodes>
            0 -1 620 -2.6539899408817291e-04</internalNodes>
          <leafValues>
            -3.4436461329460144e-01 1.4006969332695007e-01</leafValues></_>
        <_>
          <internalNodes>
            0 -1 700 -3.9217632729560137e-04</internalNodes>
          <leafValues>
            -5.0647759437561035e-01 9.6216589212417603e-02</leafValues></_>
        <_>
          <internalNodes>
            0 -1 691 -3.2867291010916233e-03</internalNodes>
          <leafValues>
            6.8209224939346313e-01 -9.1097041964530945e-02</leafValues></_>
        <_>
          <internalNodes>
            0 -1 1004 3.8797338493168354e-04</internalNodes>
          <leafValues>
            -3.0550760030746460e-01 1.7731761932373047e-01</leafValues></_>
        <_>
          <internalNodes>
            0 -1 196 -8.9357852935791016e-02</internalNodes>
          <leafValues>
            4.6478307247161865e-01 -1.0801002383232117e-01</leafValues></_>
        <_>
          <internalNodes>
            0 -1 282 7.2287904913537204e-05</internalNodes>
          <leafValues>
            1.8880422413349152e-01 -2.5415652990341187e-01</leafValues></_>
        <_>
          <internalNodes>
            0 -1 592 -4.4055245816707611e-02</internalNodes>
          <leafValues>
            -7.0998960733413696e-01 5.7560086250305176e-02</leafValues></_>
        <_>
          <internalNodes>
            0 -1 476 6.1132952570915222e-02</internalNodes>
          <leafValues>
            7.3958836495876312e-02 -5.7322984933853149e-01</leafValues></_>
        <_>
          <internalNodes>
            0 -1 816 -1.3502371311187744e-01</internalNodes>
          <leafValues>
            -9.0198796987533569e-01 3.7531059235334396e-02</leafValues></_>
        <_>
          <internalNodes>
            0 -1 304 -2.1595270372927189e-03</internalNodes>
          <leafValues>
            1.5719670057296753e-01 -2.4492815136909485e-01</leafValues></_>
        <_>
          <internalNodes>
            0 -1 369 -4.2224891483783722e-02</internalNodes>
          <leafValues>
            -5.9452915191650391e-01 7.1980297565460205e-02</leafValues></_>
        <_>
          <internalNodes>
            0 -1 893 -8.8717811740934849e-04</internalNodes>
          <leafValues>
            2.2303222119808197e-01 -1.8043228983879089e-01</leafValues></_>
        <_>
          <internalNodes>
            0 -1 866 -4.8616413027048111e-02</internalNodes>
          <leafValues>
            3.7367153167724609e-01 -1.2969061732292175e-01</leafValues></_>
        <_>
          <internalNodes>
            0 -1 1015 1.4735330478288233e-04</internalNodes>
          <leafValues>
            1.4027069509029388e-01 -2.8095132112503052e-01</leafValues></_>
        <_>
          <internalNodes>
            0 -1 291 -5.4831838607788086e-01</internalNodes>
          <leafValues>
            -7.8616696596145630e-01 4.7383699566125870e-02</leafValues></_>
        <_>
          <internalNodes>
            0 -1 160 -1.0257269255816936e-02</internalNodes>
          <leafValues>
            2.0847168564796448e-01 -1.8416626751422882e-01</leafValues></_>
        <_>
          <internalNodes>
            0 -1 685 8.9489892125129700e-03</internalNodes>
          <leafValues>
            -5.5334843695163727e-02 6.7596781253814697e-01</leafValues></_>
        <_>
          <internalNodes>
            0 -1 211 1.8487839028239250e-02</internalNodes>
          <leafValues>
            6.9231785833835602e-02 -6.0925543308258057e-01</leafValues></_>
        <_>
          <internalNodes>
            0 -1 89 -3.8472784217447042e-03</internalNodes>
          <leafValues>
            1.9840544462203979e-01 -1.9491906464099884e-01</leafValues></_>
        <_>
          <internalNodes>
            0 -1 87 2.3496721405535936e-04</internalNodes>
          <leafValues>
            1.1810569465160370e-01 -3.0851095914840698e-01</leafValues></_>
        <_>
          <internalNodes>
            0 -1 578 1.1492898687720299e-02</internalNodes>
          <leafValues>
            -1.6085778176784515e-01 2.3486818373203278e-01</leafValues></_>
        <_>
          <internalNodes>
            0 -1 404 -2.7161093428730965e-02</internalNodes>
          <leafValues>
            5.1414591073989868e-01 -7.5062237679958344e-02</leafValues></_>
        <_>
          <internalNodes>
            0 -1 826 -2.2223638370633125e-03</internalNodes>
          <leafValues>
            2.0659334957599640e-01 -1.8974545598030090e-01</leafValues></_></weakClassifiers></_>
    <!-- stage 5 -->
    <_>
      <maxWeakCount>37</maxWeakCount>
      <stageThreshold>-1.5564049482345581e+00</stageThreshold>
      <weakClassifiers>
        <_>
          <internalNodes>
            0 -1 42 -3.6425918340682983e-02</internalNodes>
          <leafValues>
            2.9561528563499451e-01 -3.9542666077613831e-01</leafValues></_>
        <_>
          <internalNodes>
            0 -1 574 -2.1682294085621834e-02</internalNodes>
          <leafValues>
            2.3689423501491547e-01 -3.7448409199714661e-01</leafValues></_>
        <_>
          <internalNodes>
            0 -1 367 1.8362153321504593e-02</internalNodes>
          <leafValues>
            -1.8677870929241180e-01 3.2971253991127014e-01</leafValues></_>
        <_>
          <internalNodes>
            0 -1 40 -8.2430317997932434e-03</internalNodes>
          <leafValues>
            -4.5189714431762695e-01 1.2017115950584412e-01</leafValues></_>
        <_>
          <internalNodes>
            0 -1 978 -1.0842387382581364e-05</internalNodes>
          <leafValues>
            1.9884346425533295e-01 -2.6382586359977722e-01</leafValues></_>
        <_>
          <internalNodes>
            0 -1 525 -9.9590257741510868e-04</internalNodes>
          <leafValues>
            3.4861820936203003e-01 -1.4492230117321014e-01</leafValues></_>
        <_>
          <internalNodes>
            0 -1 657 3.0666016391478479e-04</internalNodes>
          <leafValues>
            1.5548352897167206e-01 -3.5912752151489258e-01</leafValues></_>
        <_>
          <internalNodes>
            0 -1 657 -2.7338950894773006e-04</internalNodes>
          <leafValues>
            -4.8750531673431396e-01 7.9402998089790344e-02</leafValues></_>
        <_>
          <internalNodes>
            0 -1 528 4.3001992162317038e-04</internalNodes>
          <leafValues>
            -1.5211805701255798e-01 3.2246094942092896e-01</leafValues></_>
        <_>
          <internalNodes>
            0 -1 84 4.6062678098678589e-01</internalNodes>
          <leafValues>
            8.6194939911365509e-02 -8.0471104383468628e-01</leafValues></_>
        <_>
          <internalNodes>
            0 -1 365 -8.3441533148288727e-02</internalNodes>
          <leafValues>
            -5.0079846382141113e-01 6.6684976220130920e-02</leafValues></_>
        <_>
          <internalNodes>
            0 -1 106 4.1615124791860580e-04</internalNodes>
          <leafValues>
            1.5326853096485138e-01 -3.0619305372238159e-01</leafValues></_>
        <_>
          <internalNodes>
            0 -1 272 -2.6463471353054047e-02</internalNodes>
          <leafValues>
            -6.5084218978881836e-01 6.1996974050998688e-02</leafValues></_>
        <_>
          <internalNodes>
            0 -1 344 -9.9380795290926471e-06</internalNodes>
          <leafValues>
            1.0976764559745789e-01 -3.9697280526161194e-01</leafValues></_>
        <_>
          <internalNodes>
            0 -1 499 -1.3727506157010794e-03</internalNodes>
          <leafValues>
            5.9710824489593506e-01 -8.8422559201717377e-02</leafValues></_>
        <_>
          <internalNodes>
            0 -1 193 1.7893876135349274e-01</internalNodes>
          <leafValues>
            -6.5230444073677063e-02 6.2699526548385620e-01</leafValues></_>
        <_>
          <internalNodes>
            0 -1 229 -8.2328498363494873e-02</internalNodes>
          <leafValues>
            5.1388764381408691e-01 -9.9918700754642487e-02</leafValues></_>
        <_>
          <internalNodes>
            0 -1 1044 1.7372887814417481e-03</internalNodes>
          <leafValues>
            -6.6347390413284302e-02 5.1444381475448608e-01</leafValues></_>
        <_>
          <internalNodes>
            0 -1 375 1.7277501523494720e-02</internalNodes>
          <leafValues>
            -1.4264698326587677e-01 2.7299922704696655e-01</leafValues></_>
        <_>
          <internalNodes>
            0 -1 742 -9.9043138325214386e-03</internalNodes>
          <leafValues>
            -5.2053958177566528e-01 8.5380852222442627e-02</leafValues></_>
        <_>
          <internalNodes>
            0 -1 33 -2.9604136943817139e-04</internalNodes>
          <leafValues>
            -3.5048389434814453e-01 9.9497161805629730e-02</leafValues></_>
        <_>
          <internalNodes>
            0 -1 880 9.6185531219816767e-06</internalNodes>
          <leafValues>
            -1.7620103061199188e-01 2.2227160632610321e-01</leafValues></_>
        <_>
          <internalNodes>
            0 -1 713 -5.0534538924694061e-02</internalNodes>
          <leafValues>
            -6.8956273794174194e-01 6.2157381325960159e-02</leafValues></_>
        <_>
          <internalNodes>
            0 -1 865 -6.6524045541882515e-03</internalNodes>
          <leafValues>
            1.6070412099361420e-01 -2.3979844152927399e-01</leafValues></_>
        <_>
          <internalNodes>
            0 -1 201 -5.8217620849609375e-01</internalNodes>
          <leafValues>
            -7.9331636428833008e-01 4.9142338335514069e-02</leafValues></_>
        <_>
          <internalNodes>
            0 -1 353 -9.0510342270135880e-03</internalNodes>
          <leafValues>
            2.1557629108428955e-01 -1.9185799360275269e-01</leafValues></_>
        <_>
          <internalNodes>
            0 -1 335 1.6876321285963058e-02</internalNodes>
          <leafValues>
            1.1665238440036774e-01 -3.8889396190643311e-01</leafValues></_>
        <_>
          <internalNodes>
            0 -1 530 -8.7954197078943253e-04</internalNodes>
          <leafValues>
            3.3085533976554871e-01 -1.4180949330329895e-01</leafValues></_>
        <_>
          <internalNodes>
            0 -1 48 -2.8846465284004807e-04</internalNodes>
          <leafValues>
            -3.2032203674316406e-01 1.2595136463642120e-01</leafValues></_>
        <_>
          <internalNodes>
            0 -1 855 -4.0454291738569736e-03</internalNodes>
          <leafValues>
            1.9108368456363678e-01 -2.1118141710758209e-01</leafValues></_>
        <_>
          <internalNodes>
            0 -1 997 4.8585161566734314e-03</internalNodes>
          <leafValues>
            8.5380248725414276e-02 -4.7638922929763794e-01</leafValues></_>
        <_>
          <internalNodes>
            0 -1 399 -1.7449196428060532e-02</internalNodes>
          <leafValues>
            3.1683427095413208e-01 -1.4251457154750824e-01</leafValues></_>
        <_>
          <internalNodes>
            0 -1 732 -2.2600019292440265e-04</internalNodes>
          <leafValues>
            -3.5037586092948914e-01 1.1383960396051407e-01</leafValues></_>
        <_>
          <internalNodes>
            0 -1 755 2.8698300011456013e-03</internalNodes>
          <leafValues>
            -6.7201815545558929e-02 6.6286081075668335e-01</leafValues></_>
        <_>
          <internalNodes>
            0 -1 1055 -1.4291462721303105e-03</internalNodes>
          <leafValues>
            5.5261963605880737e-01 -5.6883379817008972e-02</leafValues></_>
        <_>
          <internalNodes>
            0 -1 609 -3.5604233853518963e-03</internalNodes>
          <leafValues>
            -6.3365709781646729e-01 6.0675941407680511e-02</leafValues></_>
        <_>
          <internalNodes>
            0 -1 661 -1.0025687515735626e-02</internalNodes>
          <leafValues>
            2.4739226698875427e-01 -1.4673341810703278e-01</leafValues></_></weakClassifiers></_>
    <!-- stage 6 -->
    <_>
      <maxWeakCount>40</maxWeakCount>
      <stageThreshold>-1.5599697828292847e+00</stageThreshold>
      <weakClassifiers>
        <_>
          <internalNodes>
            0 -1 289 -2.1832954138517380e-02</internalNodes>
          <leafValues>
            1.7097792029380798e-01 -3.7218156456947327e-01</leafValues></_>
        <_>
          <internalNodes>
            0 -1 779 1.4735675649717450e-03</internalNodes>
          <leafValues>
            -1.7954911291599274e-01 3.8800624012947083e-01</leafValues></_>
        <_>
          <internalNodes>
            0 -1 778 -7.6188181992620230e-04</internalNodes>
          <leafValues>
            3.3179846405982971e-01 -2.0675332844257355e-01</leafValues></_>
        <_>
          <internalNodes>
            0 -1 110 1.9139590859413147e-01</internalNodes>
          <leafValues>
            1.6605268418788910e-01 -5.0920665264129639e-01</leafValues></_>
        <_>
          <internalNodes>
            0 -1 179 -9.5841579139232635e-02</internalNodes>
          <leafValues>
            -3.9709529280662537e-01 1.8464472889900208e-01</leafValues></_>
        <_>
          <internalNodes>
            0 -1 831 -1.5851063653826714e-03</internalNodes>
          <leafValues>
            5.0820392370223999e-01 -1.2079023569822311e-01</leafValues></_>
        <_>
          <internalNodes>
            0 -1 326 2.3458001669496298e-03</internalNodes>
          <leafValues>
            -8.0917291343212128e-02 6.4094412326812744e-01</leafValues></_>
        <_>
          <internalNodes>
            0 -1 436 7.8603280708193779e-03</internalNodes>
          <leafValues>
            -2.5474807620048523e-01 1.8944549560546875e-01</leafValues></_>
        <_>
          <internalNodes>
            0 -1 702 2.6794450823217630e-03</internalNodes>
          <leafValues>
            -6.7564748227596283e-02 6.3190549612045288e-01</leafValues></_>
        <_>
          <internalNodes>
            0 -1 1054 2.3311055265367031e-03</internalNodes>
          <leafValues>
            -6.7569702863693237e-02 6.5642583370208740e-01</leafValues></_>
        <_>
          <internalNodes>
            0 -1 503 -1.8199656158685684e-02</internalNodes>
          <leafValues>
            2.3038099706172943e-01 -2.0339857041835785e-01</leafValues></_>
        <_>
          <internalNodes>
            0 -1 653 2.7152600232511759e-03</internalNodes>
          <leafValues>
            -6.6347703337669373e-02 6.2361824512481689e-01</leafValues></_>
        <_>
          <internalNodes>
            0 -1 348 -2.8424867196008563e-04</internalNodes>
          <leafValues>
            1.5504504740238190e-01 -3.1385168433189392e-01</leafValues></_>
        <_>
          <internalNodes>
            0 -1 909 7.8203286975622177e-03</internalNodes>
          <leafValues>
            4.7766238451004028e-02 -7.1153378486633301e-01</leafValues></_>
        <_>
          <internalNodes>
            0 -1 520 5.3325220942497253e-03</internalNodes>
          <leafValues>
            -1.0579547286033630e-01 4.3583422899246216e-01</leafValues></_>
        <_>
          <internalNodes>
            0 -1 929 -1.0943435881927144e-05</internalNodes>
          <leafValues>
            1.2817658483982086e-01 -3.2491278648376465e-01</leafValues></_>
        <_>
          <internalNodes>
            0 -1 190 5.8384872972965240e-02</internalNodes>
          <leafValues>
            -6.1836875975131989e-02 6.2675297260284424e-01</leafValues></_>
        <_>
          <internalNodes>
            0 -1 1054 -1.6386241186410189e-03</internalNodes>
          <leafValues>
            4.9019551277160645e-01 -7.6078303158283234e-02</leafValues></_>
        <_>
          <internalNodes>
            0 -1 1017 -2.6261929888278246e-03</internalNodes>
          <leafValues>
            2.1662917733192444e-01 -1.8661357462406158e-01</leafValues></_>
        <_>
          <internalNodes>
            0 -1 701 2.2489705588668585e-04</internalNodes>
          <leafValues>
            1.1237912625074387e-01 -3.6694028973579407e-01</leafValues></_>
        <_>
          <internalNodes>
            0 -1 653 -3.0770348384976387e-03</internalNodes>
          <leafValues>
            6.8294394016265869e-01 -7.7024511992931366e-02</leafValues></_>
        <_>
          <internalNodes>
            0 -1 1018 -2.2077793255448341e-03</internalNodes>
          <leafValues>
            3.2584235072135925e-01 -1.3385744392871857e-01</leafValues></_>
        <_>
          <internalNodes>
            0 -1 1008 -2.9208313208073378e-03</internalNodes>
          <leafValues>
            3.3741149306297302e-01 -1.1267198622226715e-01</leafValues></_>
        <_>
          <internalNodes>
            0 -1 1086 -9.1936241369694471e-04</internalNodes>
          <leafValues>
            -3.2727694511413574e-01 1.3442523777484894e-01</leafValues></_>
        <_>
          <internalNodes>
            0 -1 493 1.9998622592538595e-03</internalNodes>
          <leafValues>
            -1.3730694353580475e-01 2.9016324877738953e-01</leafValues></_>
        <_>
          <internalNodes>
            0 -1 651 2.9084796551615000e-04</internalNodes>
          <leafValues>
            1.1020253598690033e-01 -3.5767015814781189e-01</leafValues></_>
        <_>
          <internalNodes>
            0 -1 279 -3.5097852349281311e-02</internalNodes>
          <leafValues>
            3.3782666921615601e-01 -1.2790055572986603e-01</leafValues></_>
        <_>
          <internalNodes>
            0 -1 889 1.2649643394979648e-05</internalNodes>
          <leafValues>
            -2.4287188053131104e-01 1.6828688979148865e-01</leafValues></_>
        <_>
          <internalNodes>
            0 -1 354 -5.9125677216798067e-04</internalNodes>
          <leafValues>
            2.1010725200176239e-01 -1.9742575287818909e-01</leafValues></_>
        <_>
          <internalNodes>
            0 -1 860 1.3424957171082497e-02</internalNodes>
          <leafValues>
            8.3966784179210663e-02 -4.3730756640434265e-01</leafValues></_>
        <_>
          <internalNodes>
            0 -1 533 1.0074189631268382e-03</internalNodes>
          <leafValues>
            -9.3965865671634674e-02 4.4731730222702026e-01</leafValues></_>
        <_>
          <internalNodes>
            0 -1 424 -3.5485241096466780e-03</internalNodes>
          <leafValues>
            1.9313684105873108e-01 -2.0125722885131836e-01</leafValues></_>
        <_>
          <internalNodes>
            0 -1 323 -2.5841647386550903e-01</internalNodes>
          <leafValues>
            -6.4781010150909424e-01 5.9882394969463348e-02</leafValues></_>
        <_>
          <internalNodes>
            0 -1 3 -6.4475904218852520e-04</internalNodes>
          <leafValues>
            -3.0934500694274902e-01 1.1557118594646454e-01</leafValues></_>
        <_>
          <internalNodes>
            0 -1 3 5.4029043531045318e-04</internalNodes>
          <leafValues>
            1.2572664022445679e-01 -3.6361217498779297e-01</leafValues></_>
        <_>
          <internalNodes>
            0 -1 221 -2.3032831959426403e-03</internalNodes>
          <leafValues>
            2.9601711034774780e-01 -1.3287930190563202e-01</leafValues></_>
        <_>
          <internalNodes>
            0 -1 848 1.0088119888678193e-03</internalNodes>
          <leafValues>
            -6.8516358733177185e-02 5.1590502262115479e-01</leafValues></_>
        <_>
          <internalNodes>
            0 -1 630 -8.4483753889799118e-03</internalNodes>
          <leafValues>
            -4.9594447016716003e-01 8.6224243044853210e-02</leafValues></_>
        <_>
          <internalNodes>
            0 -1 771 -8.7412470020353794e-04</internalNodes>
          <leafValues>
            2.5401860475540161e-01 -1.6188409924507141e-01</leafValues></_>
        <_>
          <internalNodes>
            0 -1 263 2.9189972206950188e-02</internalNodes>
          <leafValues>
            7.9319141805171967e-02 -5.3410530090332031e-01</leafValues></_></weakClassifiers></_>
    <!-- stage 7 -->
    <_>
      <maxWeakCount>56</maxWeakCount>
      <stageThreshold>-1.6885342597961426e+00</stageThreshold>
      <weakClassifiers>
        <_>
          <internalNodes>
            0 -1 982 -9.5729819804546423e-06</internalNodes>
          <leafValues>
            -8.2758618518710136e-03 -4.6476191282272339e-01</leafValues></_>
        <_>
          <internalNodes>
            0 -1 128 -5.7212766259908676e-02</internalNodes>
          <leafValues>
            2.4875004589557648e-01 -2.2136878967285156e-01</leafValues></_>
        <_>
          <internalNodes>
            0 -1 874 -1.8606260418891907e-02</internalNodes>
          <leafValues>
            2.0773920416831970e-01 -2.2660316526889801e-01</leafValues></_>
        <_>
          <internalNodes>
            0 -1 980 -1.1356481081747916e-05</internalNodes>
          <leafValues>
            1.6323253512382507e-01 -2.6360362768173218e-01</leafValues></_>
        <_>
          <internalNodes>
            0 -1 103 -1.3523110188543797e-02</internalNodes>
          <leafValues>
            1.8669334053993225e-01 -2.3996931314468384e-01</leafValues></_>
        <_>
          <internalNodes>
            0 -1 149 1.9557397812604904e-02</internalNodes>
          <leafValues>
            -1.2269940227270126e-01 3.7386316061019897e-01</leafValues></_>
        <_>
          <internalNodes>
            0 -1 986 -9.7579049906926230e-06</internalNodes>
          <leafValues>
            1.7998823523521423e-01 -2.2483290731906891e-01</leafValues></_>
        <_>
          <internalNodes>
            0 -1 700 -3.6284147063270211e-04</internalNodes>
          <leafValues>
            -4.7518822550773621e-01 7.2862274944782257e-02</leafValues></_>
        <_>
          <internalNodes>
            0 -1 700 4.5683875214308500e-04</internalNodes>
          <leafValues>
            8.0170810222625732e-02 -4.5230039954185486e-01</leafValues></_>
        <_>
          <internalNodes>
            0 -1 283 -2.7507532387971878e-02</internalNodes>
          <leafValues>
            4.3200829625129700e-01 -8.2890577614307404e-02</leafValues></_>
        <_>
          <internalNodes>
            0 -1 717 -1.1056495830416679e-02</internalNodes>
          <leafValues>
            1.4745293557643890e-01 -2.6578107476234436e-01</leafValues></_>
        <_>
          <internalNodes>
            0 -1 892 -9.6977502107620239e-03</internalNodes>
          <leafValues>
            -4.8562276363372803e-01 7.2557456791400909e-02</leafValues></_>
        <_>
          <internalNodes>
            0 -1 723 -3.3676670864224434e-03</internalNodes>
          <leafValues>
            5.5988812446594238e-01 -7.3681704699993134e-02</leafValues></_>
        <_>
          <internalNodes>
            0 -1 260 -6.2302790582180023e-02</internalNodes>
          <leafValues>
            -6.7209839820861816e-01 8.0272875726222992e-02</leafValues></_>
        <_>
          <internalNodes>
            0 -1 975 1.6889831749722362e-04</internalNodes>
          <leafValues>
            -2.5619819760322571e-01 1.4006087183952332e-01</leafValues></_>
        <_>
          <internalNodes>
            0 -1 286 -2.4547459557652473e-02</internalNodes>
          <leafValues>
            4.0522694587707520e-01 -7.8160621225833893e-02</leafValues></_>
        <_>
          <internalNodes>
            0 -1 418 -1.8292369786649942e-03</internalNodes>
          <leafValues>
            6.4819550514221191e-01 -4.7326859086751938e-02</leafValues></_>
        <_>
          <internalNodes>
            0 -1 651 -1.7268750525545329e-04</internalNodes>
          <leafValues>
            -3.3787667751312256e-01 1.1481029540300369e-01</leafValues></_>
        <_>
          <internalNodes>
            0 -1 651 5.0039507914334536e-04</internalNodes>
          <leafValues>
            7.9892106354236603e-02 -4.5516029000282288e-01</leafValues></_>
        <_>
          <internalNodes>
            0 -1 516 2.2103358060121536e-03</internalNodes>
          <leafValues>
            -6.2907084822654724e-02 6.4507299661636353e-01</leafValues></_>
        <_>
          <internalNodes>
            0 -1 25 -2.4707190692424774e-02</internalNodes>
          <leafValues>
            5.3503090143203735e-01 -5.2812404930591583e-02</leafValues></_>
        <_>
          <internalNodes>
            0 -1 215 -1.3492175377905369e-02</internalNodes>
          <leafValues>
            -4.5040422677993774e-01 7.7723219990730286e-02</leafValues></_>
        <_>
          <internalNodes>
            0 -1 5 -1.0368349030613899e-02</internalNodes>
          <leafValues>
            -4.2343899607658386e-01 8.0174505710601807e-02</leafValues></_>
        <_>
          <internalNodes>
            0 -1 813 6.3156394753605127e-04</internalNodes>
          <leafValues>
            -1.0818431526422501e-01 3.3361822366714478e-01</leafValues></_>
        <_>
          <internalNodes>
            0 -1 813 -8.9914508862420917e-04</internalNodes>
          <leafValues>
            4.3853864073753357e-01 -9.0930774807929993e-02</leafValues></_>
        <_>
          <internalNodes>
            0 -1 995 4.2524121701717377e-02</internalNodes>
          <leafValues>
            -5.6564278900623322e-02 5.5605512857437134e-01</leafValues></_>
        <_>
          <internalNodes>
            0 -1 984 -1.2102878827136010e-05</internalNodes>
          <leafValues>
            1.8943928182125092e-01 -2.3272599279880524e-01</leafValues></_>
        <_>
          <internalNodes>
            0 -1 219 1.0713866213336587e-03</internalNodes>
          <leafValues>
            8.6921885609626770e-02 -3.9204069972038269e-01</leafValues></_>
        <_>
          <internalNodes>
            0 -1 368 -2.7995975688099861e-03</internalNodes>
          <leafValues>
            5.5402857065200806e-01 -6.7184410989284515e-02</leafValues></_>
        <_>
          <internalNodes>
            0 -1 931 1.2133878655731678e-02</internalNodes>
          <leafValues>
            6.9841995835304260e-02 -5.9102088212966919e-01</leafValues></_>
        <_>
          <internalNodes>
            0 -1 825 -1.0991171002388000e-02</internalNodes>
          <leafValues>
            2.2699695825576782e-01 -1.7507408559322357e-01</leafValues></_>
        <_>
          <internalNodes>
            0 -1 167 7.8405618667602539e-02</internalNodes>
          <leafValues>
            -1.0014892369508743e-01 3.9428883790969849e-01</leafValues></_>
        <_>
          <internalNodes>
            0 -1 366 -3.7695693317800760e-03</internalNodes>
          <leafValues>
            7.0402777194976807e-01 -4.9441982060670853e-02</leafValues></_>
        <_>
          <internalNodes>
            0 -1 66 -2.5514193112030625e-04</internalNodes>
          <leafValues>
            -2.9789054393768311e-01 1.1989229172468185e-01</leafValues></_>
        <_>
          <internalNodes>
            0 -1 68 1.2144804350100458e-04</internalNodes>
          <leafValues>
            1.3484814763069153e-01 -2.7886646986007690e-01</leafValues></_>
        <_>
          <internalNodes>
            0 -1 564 -8.5077427327632904e-02</internalNodes>
          <leafValues>
            -5.5583840608596802e-01 6.6180184483528137e-02</leafValues></_>
        <_>
          <internalNodes>
            0 -1 871 2.4839043617248535e-03</internalNodes>
          <leafValues>
            -7.7864028513431549e-02 4.9450933933258057e-01</leafValues></_>
        <_>
          <internalNodes>
            0 -1 1042 1.7777440370991826e-03</internalNodes>
          <leafValues>
            -6.5113008022308350e-02 4.8128944635391235e-01</leafValues></_>
        <_>
          <internalNodes>
            0 -1 52 -2.0155768841505051e-02</internalNodes>
          <leafValues>
            2.2023907303810120e-01 -1.4380973577499390e-01</leafValues></_>
        <_>
          <internalNodes>
            0 -1 305 -8.9909397065639496e-03</internalNodes>
          <leafValues>
            3.0544573068618774e-01 -1.1054941266775131e-01</leafValues></_>
        <_>
          <internalNodes>
            0 -1 207 -6.6435001790523529e-02</internalNodes>
          <leafValues>
            -7.9453587532043457e-01 4.5815128833055496e-02</leafValues></_>
        <_>
          <internalNodes>
            0 -1 336 -2.4922532029449940e-03</internalNodes>
          <leafValues>
            1.8775364756584167e-01 -1.9740960001945496e-01</leafValues></_>
        <_>
          <internalNodes>
            0 -1 1083 -1.8168969545513391e-03</internalNodes>
          <leafValues>
            -2.8990015387535095e-01 1.1072684824466705e-01</leafValues></_>
        <_>
          <internalNodes>
            0 -1 496 -1.4481745893135667e-04</internalNodes>
          <leafValues>
            1.5931245684623718e-01 -1.8939101696014404e-01</leafValues></_>
        <_>
          <internalNodes>
            0 -1 1071 -3.9304670644924045e-04</internalNodes>
          <leafValues>
            -3.6360195279121399e-01 8.7680868804454803e-02</leafValues></_>
        <_>
          <internalNodes>
            0 -1 794 -3.1400728970766068e-02</internalNodes>
          <leafValues>
            -6.3302224874496460e-01 4.4815652072429657e-02</leafValues></_>
        <_>
          <internalNodes>
            0 -1 1040 -7.9470444470643997e-03</internalNodes>
          <leafValues>
            4.5898041129112244e-01 -7.3637656867504120e-02</leafValues></_>
        <_>
          <internalNodes>
            0 -1 875 2.3992099158931524e-05</internalNodes>
          <leafValues>
            -1.4808605611324310e-01 1.9683761894702911e-01</leafValues></_>
        <_>
          <internalNodes>
            0 -1 740 9.6899969503283501e-04</internalNodes>
          <leafValues>
            9.6133448183536530e-02 -3.2766520977020264e-01</leafValues></_>
        <_>
          <internalNodes>
            0 -1 567 -8.0484421923756599e-03</internalNodes>
          <leafValues>
            -7.1359932422637939e-01 4.1228238493204117e-02</leafValues></_>
        <_>
          <internalNodes>
            0 -1 546 2.2421819157898426e-03</internalNodes>
          <leafValues>
            -7.3661960661411285e-02 4.4466418027877808e-01</leafValues></_>
        <_>
          <internalNodes>
            0 -1 164 -1.7341265920549631e-03</internalNodes>
          <leafValues>
            5.3258657455444336e-01 -5.3660675883293152e-02</leafValues></_>
        <_>
          <internalNodes>
            0 -1 937 -9.7207573708146811e-04</internalNodes>
          <leafValues>
            -2.9626762866973877e-01 1.1346642673015594e-01</leafValues></_>
        <_>
          <internalNodes>
            0 -1 979 -6.1994377756491303e-04</internalNodes>
          <leafValues>
            1.7543362081050873e-01 -1.7274850606918335e-01</leafValues></_>
        <_>
          <internalNodes>
            0 -1 641 -9.3017704784870148e-03</internalNodes>
          <leafValues>
            -7.1360826492309570e-01 4.1111614555120468e-02</leafValues></_>
        <_>
          <internalNodes>
            0 -1 692 3.3112769597209990e-04</internalNodes>
          <leafValues>
            7.7712461352348328e-02 -3.8232824206352234e-01</leafValues></_></weakClassifiers></_>
    <!-- stage 8 -->
    <_>
      <maxWeakCount>57</maxWeakCount>
      <stageThreshold>-1.5371108055114746e+00</stageThreshold>
      <weakClassifiers>
        <_>
          <internalNodes>
            0 -1 49 -1.0341811925172806e-02</internalNodes>
          <leafValues>
            1.7940717935562134e-01 -3.3082303404808044e-01</leafValues></_>
        <_>
          <internalNodes>
            0 -1 959 -3.3760047517716885e-04</internalNodes>
          <leafValues>
            1.5201142430305481e-01 -3.0765786767005920e-01</leafValues></_>
        <_>
          <internalNodes>
            0 -1 1011 3.2199937850236893e-02</internalNodes>
          <leafValues>
            -1.5232315659523010e-01 2.9114216566085815e-01</leafValues></_>
        <_>
          <internalNodes>
            0 -1 452 -2.0036446585436352e-05</internalNodes>
          <leafValues>
            1.5221013128757477e-01 -2.6272276043891907e-01</leafValues></_>
        <_>
          <internalNodes>
            0 -1 505 -1.8995158374309540e-02</internalNodes>
          <leafValues>
            3.3136203885078430e-01 -9.6508361399173737e-02</leafValues></_>
        <_>
          <internalNodes>
            0 -1 622 1.4938693493604660e-02</internalNodes>
          <leafValues>
            -1.2103534489870071e-01 3.6543056368827820e-01</leafValues></_>
        <_>
          <internalNodes>
            0 -1 854 -4.8807021230459213e-03</internalNodes>
          <leafValues>
            1.9522939622402191e-01 -1.9745144248008728e-01</leafValues></_>
        <_>
          <internalNodes>
            0 -1 714 -1.2689598836004734e-02</internalNodes>
          <leafValues>
            2.3116929829120636e-01 -1.8294480443000793e-01</leafValues></_>
        <_>
          <internalNodes>
            0 -1 176 -4.4997755438089371e-02</internalNodes>
          <leafValues>
            2.0684283971786499e-01 -1.9381028413772583e-01</leafValues></_>
        <_>
          <internalNodes>
            0 -1 629 1.2338642030954361e-02</internalNodes>
          <leafValues>
            1.4504483342170715e-01 -2.5861328840255737e-01</leafValues></_>
        <_>
          <internalNodes>
            0 -1 197 -9.4273000955581665e-02</internalNodes>
          <leafValues>
            3.5596236586570740e-01 -1.1457010358572006e-01</leafValues></_>
        <_>
          <internalNodes>
            0 -1 195 -7.6200524345040321e-03</internalNodes>
          <leafValues>
            2.1008519828319550e-01 -1.9456982612609863e-01</leafValues></_>
        <_>
          <internalNodes>
            0 -1 147 1.0961591452360153e-01</internalNodes>
          <leafValues>
            5.8626618236303329e-02 -6.7066413164138794e-01</leafValues></_>
        <_>
          <internalNodes>
            0 -1 1056 1.8652052385732532e-03</internalNodes>
          <leafValues>
            -9.5085345208644867e-02 4.2847999930381775e-01</leafValues></_>
        <_>
          <internalNodes>
            0 -1 1056 -2.3347265087068081e-03</internalNodes>
          <leafValues>
            5.6232613325119019e-01 -4.9069821834564209e-02</leafValues></_>
        <_>
          <internalNodes>
            0 -1 59 -1.5853149816393852e-03</internalNodes>
          <leafValues>
            -2.9024091362953186e-01 1.0962522774934769e-01</leafValues></_>
        <_>
          <internalNodes>
            0 -1 974 -2.4387903977185488e-05</internalNodes>
          <leafValues>
            1.3413840532302856e-01 -2.3063412308692932e-01</leafValues></_>
        <_>
          <internalNodes>
            0 -1 725 3.3526215702295303e-04</internalNodes>
          <leafValues>
            9.1686233878135681e-02 -3.5909765958786011e-01</leafValues></_>
        <_>
          <internalNodes>
            0 -1 725 -1.7087033484131098e-04</internalNodes>
          <leafValues>
            -3.2236644625663757e-01 9.1453701257705688e-02</leafValues></_>
        <_>
          <internalNodes>
            0 -1 551 -2.8264438733458519e-03</internalNodes>
          <leafValues>
            3.3219456672668457e-01 -1.0235896706581116e-01</leafValues></_>
        <_>
          <internalNodes>
            0 -1 121 -1.6868047416210175e-02</internalNodes>
          <leafValues>
            2.0947703719139099e-01 -1.4335350692272186e-01</leafValues></_>
        <_>
          <internalNodes>
            0 -1 130 6.2667116522789001e-02</internalNodes>
          <leafValues>
            -5.5352166295051575e-02 5.8491575717926025e-01</leafValues></_>
        <_>
          <internalNodes>
            0 -1 513 -3.6396924406290054e-03</internalNodes>
          <leafValues>
            3.4542620182037354e-01 -8.7571181356906891e-02</leafValues></_>
        <_>
          <internalNodes>
            0 -1 473 -9.4419217202812433e-04</internalNodes>
          <leafValues>
            2.2878426313400269e-01 -1.4068563282489777e-01</leafValues></_>
        <_>
          <internalNodes>
            0 -1 338 -5.3896449506282806e-02</internalNodes>
          <leafValues>
            -7.3170429468154907e-01 4.2967267334461212e-02</leafValues></_>
        <_>
          <internalNodes>
            0 -1 919 2.0953029888914898e-05</internalNodes>
          <leafValues>
            -2.2689849138259888e-01 1.2824560701847076e-01</leafValues></_>
        <_>
          <internalNodes>
            0 -1 206 -9.5828494522720575e-04</internalNodes>
          <leafValues>
            1.3248735666275024e-01 -2.1806690096855164e-01</leafValues></_>
        <_>
          <internalNodes>
            0 -1 120 3.4495953004807234e-03</internalNodes>
          <leafValues>
            -8.5092358291149139e-02 4.0200483798980713e-01</leafValues></_>
        <_>
          <internalNodes>
            0 -1 194 1.9279906526207924e-02</internalNodes>
          <leafValues>
            4.8917286098003387e-02 -7.4118602275848389e-01</leafValues></_>
        <_>
          <internalNodes>
            0 -1 232 -1.6405109316110611e-02</internalNodes>
          <leafValues>
            2.5209107995033264e-01 -1.2329833954572678e-01</leafValues></_>
        <_>
          <internalNodes>
            0 -1 1071 2.2871737019158900e-04</internalNodes>
          <leafValues>
            1.0223464667797089e-01 -3.0152544379234314e-01</leafValues></_>
        <_>
          <internalNodes>
            0 -1 1051 1.2997941812500358e-03</internalNodes>
          <leafValues>
            -6.5871164202690125e-02 4.6656718850135803e-01</leafValues></_>
        <_>
          <internalNodes>
            0 -1 598 6.9755446165800095e-03</internalNodes>
          <leafValues>
            4.6237926930189133e-02 -6.6396594047546387e-01</leafValues></_>
        <_>
          <internalNodes>
            0 -1 851 -8.3045437349937856e-05</internalNodes>
          <leafValues>
            1.0243556648492813e-01 -2.6667493581771851e-01</leafValues></_>
        <_>
          <internalNodes>
            0 -1 112 -3.9164829254150391e-01</internalNodes>
          <leafValues>
            -3.6937996745109558e-01 8.9174762368202209e-02</leafValues></_>
        <_>
          <internalNodes>
            0 -1 798 -1.4957858249545097e-02</internalNodes>
          <leafValues>
            1.7045794427394867e-01 -1.6649320721626282e-01</leafValues></_>
        <_>
          <internalNodes>
            0 -1 647 2.2365541663020849e-03</internalNodes>
          <leafValues>
            -6.5195798873901367e-02 4.2828720808029175e-01</leafValues></_>
        <_>
          <internalNodes>
            0 -1 847 -1.7191976075991988e-03</internalNodes>
          <leafValues>
            1.3699398934841156e-01 -2.2921586036682129e-01</leafValues></_>
        <_>
          <internalNodes>
            0 -1 708 5.0849106628447771e-04</internalNodes>
          <leafValues>
            1.0955426096916199e-01 -2.6180949807167053e-01</leafValues></_>
        <_>
          <internalNodes>
            0 -1 511 -2.6632719673216343e-03</internalNodes>
          <leafValues>
            4.6501949429512024e-01 -6.3993781805038452e-02</leafValues></_>
        <_>
          <internalNodes>
            0 -1 455 -5.3789652884006500e-02</internalNodes>
          <leafValues>
            -5.8708012104034424e-01 5.4660983383655548e-02</leafValues></_>
        <_>
          <internalNodes>
            0 -1 581 1.4615928754210472e-02</internalNodes>
          <leafValues>
            -8.3994179964065552e-02 3.7890776991844177e-01</leafValues></_>
        <_>
          <internalNodes>
            0 -1 382 -2.2517953766509891e-05</internalNodes>
          <leafValues>
            1.2862285971641541e-01 -2.1854712069034576e-01</leafValues></_>
        <_>
          <internalNodes>
            0 -1 29 -2.8223247500136495e-04</internalNodes>
          <leafValues>
            -2.8623121976852417e-01 1.0277014225721359e-01</leafValues></_>
        <_>
          <internalNodes>
            0 -1 163 -2.1609565243124962e-02</internalNodes>
          <leafValues>
            -7.4732369184494019e-01 3.4033946692943573e-02</leafValues></_>
        <_>
          <internalNodes>
            0 -1 702 1.5037533594295382e-03</internalNodes>
          <leafValues>
            -8.3348467946052551e-02 3.4034487605094910e-01</leafValues></_>
        <_>
          <internalNodes>
            0 -1 864 -8.1503688124939799e-04</internalNodes>
          <leafValues>
            -2.6506242156028748e-01 1.0285904258489609e-01</leafValues></_>
        <_>
          <internalNodes>
            0 -1 113 -3.5614531952887774e-03</internalNodes>
          <leafValues>
            2.5761684775352478e-01 -1.1241343617439270e-01</leafValues></_>
        <_>
          <internalNodes>
            0 -1 117 3.5025645047426224e-03</internalNodes>
          <leafValues>
            -7.6949730515480042e-02 3.9634740352630615e-01</leafValues></_>
        <_>
          <internalNodes>
            0 -1 98 -2.1527931676246226e-04</internalNodes>
          <leafValues>
            -2.7355366945266724e-01 1.0762577503919601e-01</leafValues></_>
        <_>
          <internalNodes>
            0 -1 769 -1.2592695420607924e-03</internalNodes>
          <leafValues>
            2.2373247146606445e-01 -1.2491615861654282e-01</leafValues></_>
        <_>
          <internalNodes>
            0 -1 739 -1.4557508984580636e-03</internalNodes>
          <leafValues>
            2.6558303833007812e-01 -1.2554317712783813e-01</leafValues></_>
        <_>
          <internalNodes>
            0 -1 971 -1.7614485695958138e-03</internalNodes>
          <leafValues>
            -4.0185412764549255e-01 7.7560253441333771e-02</leafValues></_>
        <_>
          <internalNodes>
            0 -1 1063 -7.0695243775844574e-03</internalNodes>
          <leafValues>
            5.5147588253021240e-01 -5.9474639594554901e-02</leafValues></_>
        <_>
          <internalNodes>
            0 -1 857 2.4032687768340111e-02</internalNodes>
          <leafValues>
            4.3959692120552063e-02 -7.9962176084518433e-01</leafValues></_>
        <_>
          <internalNodes>
            0 -1 633 -6.3437442295253277e-03</internalNodes>
          <leafValues>
            -6.4562952518463135e-01 3.0724817886948586e-02</leafValues></_>
        <_>
          <internalNodes>
            0 -1 143 -1.8384756520390511e-02</internalNodes>
          <leafValues>
            -3.3007997274398804e-01 8.2814320921897888e-02</leafValues></_></weakClassifiers></_>
    <!-- stage 9 -->
    <_>
      <maxWeakCount>64</maxWeakCount>
      <stageThreshold>-1.5112574100494385e+00</stageThreshold>
      <weakClassifiers>
        <_>
          <internalNodes>
            0 -1 12 -3.7316597998142242e-02</internalNodes>
          <leafValues>
            1.1660777032375336e-01 -3.2496511936187744e-01</leafValues></_>
        <_>
          <internalNodes>
            0 -1 394 1.8055714666843414e-02</internalNodes>
          <leafValues>
            -1.7837305366992950e-01 2.4777175486087799e-01</leafValues></_>
        <_>
          <internalNodes>
            0 -1 464 9.5807844772934914e-03</internalNodes>
          <leafValues>
            -2.0596987009048462e-01 2.3903988301753998e-01</leafValues></_>
        <_>
          <internalNodes>
            0 -1 692 -3.2874813769012690e-04</internalNodes>
          <leafValues>
            -3.9813888072967529e-01 8.6364284157752991e-02</leafValues></_>
        <_>
          <internalNodes>
            0 -1 540 2.4587575346231461e-02</internalNodes>
          <leafValues>
            -1.1717101931571960e-01 3.3351024985313416e-01</leafValues></_>
        <_>
          <internalNodes>
            0 -1 652 -2.9482226818799973e-04</internalNodes>
          <leafValues>
            -3.1217658519744873e-01 1.5735921263694763e-01</leafValues></_>
        <_>
          <internalNodes>
            0 -1 941 -2.1955755073577166e-05</internalNodes>
          <leafValues>
            1.4930512011051178e-01 -2.3909439146518707e-01</leafValues></_>
        <_>
          <internalNodes>
            0 -1 699 2.7889320626854897e-03</internalNodes>
          <leafValues>
            -8.8328421115875244e-02 3.4757930040359497e-01</leafValues></_>
        <_>
          <internalNodes>
            0 -1 236 -1.3681942597031593e-02</internalNodes>
          <leafValues>
            3.4038180112838745e-01 -9.2806346714496613e-02</leafValues></_>
        <_>
          <internalNodes>
            0 -1 311 -1.0392316617071629e-03</internalNodes>
          <leafValues>
            1.5028421580791473e-01 -2.3390603065490723e-01</leafValues></_>
        <_>
          <internalNodes>
            0 -1 99 -2.0092792809009552e-01</internalNodes>
          <leafValues>
            2.8996944427490234e-01 -1.1115641891956329e-01</leafValues></_>
        <_>
          <internalNodes>
            0 -1 958 -9.5729819804546423e-06</internalNodes>
          <leafValues>
            1.3279065489768982e-01 -2.4488165974617004e-01</leafValues></_>
        <_>
          <internalNodes>
            0 -1 942 1.4561619900632650e-04</internalNodes>
          <leafValues>
            1.3371492922306061e-01 -2.1548870205879211e-01</leafValues></_>
        <_>
          <internalNodes>
            0 -1 417 -2.8056912124156952e-03</internalNodes>
          <leafValues>
            5.0456613302230835e-01 -5.2383955568075180e-02</leafValues></_>
        <_>
          <internalNodes>
            0 -1 27 2.1738369017839432e-02</internalNodes>
          <leafValues>
            -8.0595232546329498e-02 3.6648362874984741e-01</leafValues></_>
        <_>
          <internalNodes>
            0 -1 421 4.6828184276819229e-03</internalNodes>
          <leafValues>
            -1.4836999773979187e-01 1.9465430080890656e-01</leafValues></_>
        <_>
          <internalNodes>
            0 -1 664 -2.8522133827209473e-01</internalNodes>
          <leafValues>
            2.5632116198539734e-01 -1.4236049354076385e-01</leafValues></_>
        <_>
          <internalNodes>
            0 -1 966 -2.6518264348851517e-05</internalNodes>
          <leafValues>
            1.4756375551223755e-01 -2.1495097875595093e-01</leafValues></_>
        <_>
          <internalNodes>
            0 -1 77 -3.0164112104102969e-04</internalNodes>
          <leafValues>
            -3.0393078923225403e-01 9.7815915942192078e-02</leafValues></_>
        <_>
          <internalNodes>
            0 -1 296 2.9451488517224789e-03</internalNodes>
          <leafValues>
            -6.9483548402786255e-02 4.6015569567680359e-01</leafValues></_>
        <_>
          <internalNodes>
            0 -1 77 1.3134523760527372e-04</internalNodes>
          <leafValues>
            1.2388158589601517e-01 -2.5344729423522949e-01</leafValues></_>
        <_>
          <internalNodes>
            0 -1 427 1.3375047128647566e-03</internalNodes>
          <leafValues>
            -8.1097364425659180e-02 4.6977713704109192e-01</leafValues></_>
        <_>
          <internalNodes>
            0 -1 651 2.1692762675229460e-04</internalNodes>
          <leafValues>
            1.0318853706121445e-01 -2.8942283987998962e-01</leafValues></_>
        <_>
          <internalNodes>
            0 -1 776 3.2444286625832319e-04</internalNodes>
          <leafValues>
            -1.3724265992641449e-01 2.0867937803268433e-01</leafValues></_>
        <_>
          <internalNodes>
            0 -1 811 3.8548914017155766e-04</internalNodes>
          <leafValues>
            -1.0460529476404190e-01 2.9472890496253967e-01</leafValues></_>
        <_>
          <internalNodes>
            0 -1 185 -2.5470457971096039e-02</internalNodes>
          <leafValues>
            -4.3930405378341675e-01 6.5630033612251282e-02</leafValues></_>
        <_>
          <internalNodes>
            0 -1 969 -9.7579049906926230e-06</internalNodes>
          <leafValues>
            1.6141328215599060e-01 -1.6581502556800842e-01</leafValues></_>
        <_>
          <internalNodes>
            0 -1 241 2.8961688280105591e-02</internalNodes>
          <leafValues>
            4.4176939874887466e-02 -6.1511510610580444e-01</leafValues></_>
        <_>
          <internalNodes>
            0 -1 240 -6.0232041869312525e-04</internalNodes>
          <leafValues>
            -3.5864514112472534e-01 6.8696282804012299e-02</leafValues></_>
        <_>
          <internalNodes>
            0 -1 261 9.7579049906926230e-06</internalNodes>
          <leafValues>
            -1.6906128823757172e-01 1.6035574674606323e-01</leafValues></_>
        <_>
          <internalNodes>
            0 -1 169 1.4870149083435535e-02</internalNodes>
          <leafValues>
            -1.0146489739418030e-01 2.5916862487792969e-01</leafValues></_>
        <_>
          <internalNodes>
            0 -1 235 -1.7747856676578522e-02</internalNodes>
          <leafValues>
            2.7052912116050720e-01 -1.1958659440279007e-01</leafValues></_>
        <_>
          <internalNodes>
            0 -1 284 3.5302084870636463e-04</internalNodes>
          <leafValues>
            1.3574483990669250e-01 -2.2254425287246704e-01</leafValues></_>
        <_>
          <internalNodes>
            0 -1 1085 -1.5437833499163389e-03</internalNodes>
          <leafValues>
            -2.6689547300338745e-01 1.0656344145536423e-01</leafValues></_>
        <_>
          <internalNodes>
            0 -1 809 9.5078221056610346e-04</internalNodes>
          <leafValues>
            -1.0966770350933075e-01 2.4536275863647461e-01</leafValues></_>
        <_>
          <internalNodes>
            0 -1 430 -4.7491802833974361e-03</internalNodes>
          <leafValues>
            2.1513088047504425e-01 -1.2601059675216675e-01</leafValues></_>
        <_>
          <internalNodes>
            0 -1 607 1.3524881564080715e-02</internalNodes>
          <leafValues>
            4.4479358941316605e-02 -5.9595960378646851e-01</leafValues></_>
        <_>
          <internalNodes>
            0 -1 601 9.7451533656567335e-04</internalNodes>
          <leafValues>
            -1.9926969707012177e-01 1.4225797355175018e-01</leafValues></_>
        <_>
          <internalNodes>
            0 -1 748 -9.1447299346327782e-03</internalNodes>
          <leafValues>
            -6.0240846872329712e-01 4.4283542782068253e-02</leafValues></_>
        <_>
          <internalNodes>
            0 -1 310 -2.9829621315002441e-02</internalNodes>
          <leafValues>
            -8.8283997774124146e-01 2.1597342565655708e-02</leafValues></_>
        <_>
          <internalNodes>
            0 -1 525 -1.6849439125508070e-03</internalNodes>
          <leafValues>
            3.4596648812294006e-01 -8.4065474569797516e-02</leafValues></_>
        <_>
          <internalNodes>
            0 -1 20 -2.9232297674752772e-04</internalNodes>
          <leafValues>
            -2.8185343742370605e-01 1.0264915227890015e-01</leafValues></_>
        <_>
          <internalNodes>
            0 -1 1079 6.8508349359035492e-03</internalNodes>
          <leafValues>
            7.0096336305141449e-02 -3.7163108587265015e-01</leafValues></_>
        <_>
          <internalNodes>
            0 -1 896 -2.5828945217654109e-04</internalNodes>
          <leafValues>
            -2.5785765051841736e-01 1.0111375898122787e-01</leafValues></_>
        <_>
          <internalNodes>
            0 -1 788 -3.7889291997998953e-03</internalNodes>
          <leafValues>
            5.2530080080032349e-01 -5.6862097233533859e-02</leafValues></_>
        <_>
          <internalNodes>
            0 -1 732 -2.5320117129012942e-04</internalNodes>
          <leafValues>
            -3.4294763207435608e-01 9.2773571610450745e-02</leafValues></_>
        <_>
          <internalNodes>
            0 -1 1020 -1.9210267346352339e-03</internalNodes>
          <leafValues>
            2.3796367645263672e-01 -1.2248352915048599e-01</leafValues></_>
        <_>
          <internalNodes>
            0 -1 1016 5.1425127312541008e-03</internalNodes>
          <leafValues>
            -9.7185507416725159e-02 3.5112202167510986e-01</leafValues></_>
        <_>
          <internalNodes>
            0 -1 579 -2.9141109553165734e-04</internalNodes>
          <leafValues>
            -2.5205811858177185e-01 1.0154830664396286e-01</leafValues></_>
        <_>
          <internalNodes>
            0 -1 691 -3.3078184351325035e-03</internalNodes>
          <leafValues>
            4.9833118915557861e-01 -5.6132078170776367e-02</leafValues></_>
        <_>
          <internalNodes>
            0 -1 475 -1.7523854970932007e-02</internalNodes>
          <leafValues>
            -4.8032453656196594e-01 6.4157314598560333e-02</leafValues></_>
        <_>
          <internalNodes>
            0 -1 690 -1.9055360462516546e-04</internalNodes>
          <leafValues>
            -2.1297565102577209e-01 1.3618549704551697e-01</leafValues></_>
        <_>
          <internalNodes>
            0 -1 307 1.4494283124804497e-02</internalNodes>
          <leafValues>
            -1.2574543058872223e-01 2.1913014352321625e-01</leafValues></_>
        <_>
          <internalNodes>
            0 -1 451 -1.0943435881927144e-05</internalNodes>
          <leafValues>
            1.9105662405490875e-01 -1.6591762006282806e-01</leafValues></_>
        <_>
          <internalNodes>
            0 -1 381 9.0109333395957947e-03</internalNodes>
          <leafValues>
            7.9306401312351227e-02 -3.3514106273651123e-01</leafValues></_>
        <_>
          <internalNodes>
            0 -1 51 -6.3975013792514801e-02</internalNodes>
          <leafValues>
            -8.3463418483734131e-01 2.9583066701889038e-02</leafValues></_>
        <_>
          <internalNodes>
            0 -1 24 8.0103694926947355e-04</internalNodes>
          <leafValues>
            6.9061025977134705e-02 -3.5527357459068298e-01</leafValues></_>
        <_>
          <internalNodes>
            0 -1 54 -2.6300970930606127e-03</internalNodes>
          <leafValues>
            3.9093446731567383e-01 -6.9582186639308929e-02</leafValues></_>
        <_>
          <internalNodes>
            0 -1 577 -3.7656534463167191e-02</internalNodes>
          <leafValues>
            2.3633840680122375e-01 -1.0792151838541031e-01</leafValues></_>
        <_>
          <internalNodes>
            0 -1 765 -1.3698253314942122e-03</internalNodes>
          <leafValues>
            3.0755078792572021e-01 -8.7878055870532990e-02</leafValues></_>
        <_>
          <internalNodes>
            0 -1 438 -1.8093962222337723e-02</internalNodes>
          <leafValues>
            -6.1445844173431396e-01 4.7091543674468994e-02</leafValues></_>
        <_>
          <internalNodes>
            0 -1 586 -1.1185759305953979e-01</internalNodes>
          <leafValues>
            7.5798773765563965e-01 -4.2808331549167633e-02</leafValues></_>
        <_>
          <internalNodes>
            0 -1 784 1.3311936054378748e-03</internalNodes>
          <leafValues>
            -1.1122459173202515e-01 2.1523466706275940e-01</leafValues></_>
        <_>
          <internalNodes>
            0 -1 646 -9.3809254467487335e-03</internalNodes>
          <leafValues>
            -5.7083392143249512e-01 4.8050910234451294e-02</leafValues></_></weakClassifiers></_>
    <!-- stage 10 -->
    <_>
      <maxWeakCount>65</maxWeakCount>
      <stageThreshold>-1.5018333196640015e+00</stageThreshold>
      <weakClassifiers>
        <_>
          <internalNodes>
            0 -1 55 -2.5833064690232277e-02</internalNodes>
          <leafValues>
            1.1904762126505375e-02 -4.1532257199287415e-01</leafValues></_>
        <_>
          <internalNodes>
            0 -1 177 1.1639834940433502e-01</internalNodes>
          <leafValues>
            8.5170768201351166e-02 -4.4959276914596558e-01</leafValues></_>
        <_>
          <internalNodes>
            0 -1 1048 1.9685242325067520e-02</internalNodes>
          <leafValues>
            -7.1994282305240631e-02 4.1073748469352722e-01</leafValues></_>
        <_>
          <internalNodes>
            0 -1 682 -1.6463480889797211e-02</internalNodes>
          <leafValues>
            2.8336387872695923e-01 -1.1138840019702911e-01</leafValues></_>
        <_>
          <internalNodes>
            0 -1 192 1.1480449885129929e-01</internalNodes>
          <leafValues>
            -9.7323060035705566e-02 3.3609941601753235e-01</leafValues></_>
        <_>
          <internalNodes>
            0 -1 820 -9.5778685063123703e-03</internalNodes>
          <leafValues>
            1.9235196709632874e-01 -2.4692799150943756e-01</leafValues></_>
        <_>
          <internalNodes>
            0 -1 726 -2.0355489687062800e-04</internalNodes>
          <leafValues>
            -2.4071073532104492e-01 1.5092118084430695e-01</leafValues></_>
        <_>
          <internalNodes>
            0 -1 839 -1.6201853752136230e-02</internalNodes>
          <leafValues>
            1.8760956823825836e-01 -1.7269925773143768e-01</leafValues></_>
        <_>
          <internalNodes>
            0 -1 95 2.5211810134351254e-03</internalNodes>
          <leafValues>
            -6.2656760215759277e-02 5.2353036403656006e-01</leafValues></_>
        <_>
          <internalNodes>
            0 -1 271 1.6810638830065727e-02</internalNodes>
          <leafValues>
            -1.2363908439874649e-01 2.3451367020606995e-01</leafValues></_>
        <_>
          <internalNodes>
            0 -1 269 -3.9261868223547935e-03</internalNodes>
          <leafValues>
            1.3410952687263489e-01 -2.3000806570053101e-01</leafValues></_>
        <_>
          <internalNodes>
            0 -1 201 -4.6932399272918701e-01</internalNodes>
          <leafValues>
            -4.9298271536827087e-01 6.6305875778198242e-02</leafValues></_>
        <_>
          <internalNodes>
            0 -1 1039 4.6971431002020836e-03</internalNodes>
          <leafValues>
            -2.1072283387184143e-01 1.4676713943481445e-01</leafValues></_>
        <_>
          <internalNodes>
            0 -1 885 4.2567035416141152e-04</internalNodes>
          <leafValues>
            -2.2705172002315521e-01 1.1871114373207092e-01</leafValues></_>
        <_>
          <internalNodes>
            0 -1 466 2.4375282227993011e-03</internalNodes>
          <leafValues>
            -6.6487640142440796e-02 4.2503657937049866e-01</leafValues></_>
        <_>
          <internalNodes>
            0 -1 726 1.9611170864664018e-04</internalNodes>
          <leafValues>
            9.8647020757198334e-02 -2.6557776331901550e-01</leafValues></_>
        <_>
          <internalNodes>
            0 -1 728 2.3904445115476847e-03</internalNodes>
          <leafValues>
            -7.5652107596397400e-02 4.2393365502357483e-01</leafValues></_>
        <_>
          <internalNodes>
            0 -1 621 4.8104268498718739e-03</internalNodes>
          <leafValues>
            -4.5998509973287582e-02 4.8941063880920410e-01</leafValues></_>
        <_>
          <internalNodes>
            0 -1 234 -1.9306428730487823e-02</internalNodes>
          <leafValues>
            2.0226176083087921e-01 -1.2787061929702759e-01</leafValues></_>
        <_>
          <internalNodes>
            0 -1 660 3.4744682488963008e-04</internalNodes>
          <leafValues>
            1.2300977110862732e-01 -2.9532840847969055e-01</leafValues></_>
        <_>
          <internalNodes>
            0 -1 1028 -1.7909497022628784e-02</internalNodes>
          <leafValues>
            3.2810604572296143e-01 -8.9892044663429260e-02</leafValues></_>
        <_>
          <internalNodes>
            0 -1 490 -8.3416789770126343e-02</internalNodes>
          <leafValues>
            -4.4109037518501282e-01 6.8148843944072723e-02</leafValues></_>
        <_>
          <internalNodes>
            0 -1 70 -3.4695309586822987e-03</internalNodes>
          <leafValues>
            -4.0628102421760559e-01 6.1850812286138535e-02</leafValues></_>
        <_>
          <internalNodes>
            0 -1 987 2.7142376638948917e-03</internalNodes>
          <leafValues>
            4.7863058745861053e-02 -5.1424878835678101e-01</leafValues></_>
        <_>
          <internalNodes>
            0 -1 1007 3.8024209439754486e-02</internalNodes>
          <leafValues>
            4.2073834687471390e-02 -5.5226343870162964e-01</leafValues></_>
        <_>
          <internalNodes>
            0 -1 967 -3.1220464734360576e-04</internalNodes>
          <leafValues>
            1.5218892693519592e-01 -1.8426398932933807e-01</leafValues></_>
        <_>
          <internalNodes>
            0 -1 259 -1.3898054137825966e-02</internalNodes>
          <leafValues>
            2.3602217435836792e-01 -1.2445978075265884e-01</leafValues></_>
        <_>
          <internalNodes>
            0 -1 80 -4.1085714101791382e-01</internalNodes>
          <leafValues>
            3.9965420961380005e-01 -6.8460516631603241e-02</leafValues></_>
        <_>
          <internalNodes>
            0 -1 1036 -6.9914073683321476e-03</internalNodes>
          <leafValues>
            3.5774332284927368e-01 -7.5780183076858521e-02</leafValues></_>
        <_>
          <internalNodes>
            0 -1 950 -4.0289119351655245e-04</internalNodes>
          <leafValues>
            -2.7135187387466431e-01 9.5833130180835724e-02</leafValues></_>
        <_>
          <internalNodes>
            0 -1 781 -1.2249504216015339e-03</internalNodes>
          <leafValues>
            3.2725563645362854e-01 -8.4990382194519043e-02</leafValues></_>
        <_>
          <internalNodes>
            0 -1 572 -2.2454619407653809e-02</internalNodes>
          <leafValues>
            2.1258194744586945e-01 -1.3979043066501617e-01</leafValues></_>
        <_>
          <internalNodes>
            0 -1 357 -3.6250472068786621e-02</internalNodes>
          <leafValues>
            3.2233464717864990e-01 -9.5415316522121429e-02</leafValues></_>
        <_>
          <internalNodes>
            0 -1 944 -2.0203369203954935e-03</internalNodes>
          <leafValues>
            2.0599405467510223e-01 -1.2129718065261841e-01</leafValues></_>
        <_>
          <internalNodes>
            0 -1 841 -1.3344748876988888e-03</internalNodes>
          <leafValues>
            4.5423603057861328e-01 -5.9906609356403351e-02</leafValues></_>
        <_>
          <internalNodes>
            0 -1 676 2.0806845277547836e-03</internalNodes>
          <leafValues>
            6.2520362436771393e-02 -5.0729775428771973e-01</leafValues></_>
        <_>
          <internalNodes>
            0 -1 545 -2.9624786111526191e-04</internalNodes>
          <leafValues>
            -2.9470911622047424e-01 8.7229005992412567e-02</leafValues></_>
        <_>
          <internalNodes>
            0 -1 813 3.5782397026196122e-04</internalNodes>
          <leafValues>
            -1.0937506705522537e-01 2.3609113693237305e-01</leafValues></_>
        <_>
          <internalNodes>
            0 -1 881 -1.4811685308814049e-02</internalNodes>
          <leafValues>
            -6.7135661840438843e-01 4.1758917272090912e-02</leafValues></_>
        <_>
          <internalNodes>
            0 -1 849 4.9096124712377787e-04</internalNodes>
          <leafValues>
            -9.8269365727901459e-02 2.7343520522117615e-01</leafValues></_>
        <_>
          <internalNodes>
            0 -1 877 -9.5803679869277403e-06</internalNodes>
          <leafValues>
            1.2585957348346710e-01 -2.1287687122821808e-01</leafValues></_>
        <_>
          <internalNodes>
            0 -1 204 -3.9354175329208374e-02</internalNodes>
          <leafValues>
            2.1730574965476990e-01 -1.2776385247707367e-01</leafValues></_>
        <_>
          <internalNodes>
            0 -1 429 5.2286880090832710e-03</internalNodes>
          <leafValues>
            -1.7843133211135864e-01 1.5104673802852631e-01</leafValues></_>
        <_>
          <internalNodes>
            0 -1 678 -1.2292229570448399e-02</internalNodes>
          <leafValues>
            -5.2350378036499023e-01 5.5484771728515625e-02</leafValues></_>
        <_>
          <internalNodes>
            0 -1 463 -1.6758818179368973e-02</internalNodes>
          <leafValues>
            2.4880596995353699e-01 -1.0921210795640945e-01</leafValues></_>
        <_>
          <internalNodes>
            0 -1 761 4.0211458690464497e-04</internalNodes>
          <leafValues>
            1.0167552530765533e-01 -2.8835564851760864e-01</leafValues></_>
        <_>
          <internalNodes>
            0 -1 507 1.4176703989505768e-02</internalNodes>
          <leafValues>
            -9.9881574511528015e-02 3.3009427785873413e-01</leafValues></_>
        <_>
          <internalNodes>
            0 -1 844 -6.3239963492378592e-04</internalNodes>
          <leafValues>
            2.7689385414123535e-01 -8.4348849952220917e-02</leafValues></_>
        <_>
          <internalNodes>
            0 -1 408 -1.8879659182857722e-04</internalNodes>
          <leafValues>
            -2.5503173470497131e-01 1.0317622870206833e-01</leafValues></_>
        <_>
          <internalNodes>
            0 -1 148 -2.0460005849599838e-02</internalNodes>
          <leafValues>
            -6.5118819475173950e-01 3.6743890494108200e-02</leafValues></_>
        <_>
          <internalNodes>
            0 -1 873 4.5589348301291466e-03</internalNodes>
          <leafValues>
            -6.8883053958415985e-02 3.9463239908218384e-01</leafValues></_>
        <_>
          <internalNodes>
            0 -1 654 -2.8583550010807812e-04</internalNodes>
          <leafValues>
            -2.6766631007194519e-01 9.5081061124801636e-02</leafValues></_>
        <_>
          <internalNodes>
            0 -1 632 1.4563571661710739e-02</internalNodes>
          <leafValues>
            -1.0988190025091171e-01 2.4542635679244995e-01</leafValues></_>
        <_>
          <internalNodes>
            0 -1 387 1.8127327784895897e-02</internalNodes>
          <leafValues>
            3.6811027675867081e-02 -6.6855114698410034e-01</leafValues></_>
        <_>
          <internalNodes>
            0 -1 1074 -2.6283850893378258e-02</internalNodes>
          <leafValues>
            -4.8303121328353882e-01 4.7524563968181610e-02</leafValues></_>
        <_>
          <internalNodes>
            0 -1 11 3.1816825270652771e-02</internalNodes>
          <leafValues>
            -5.9236712753772736e-02 4.3999731540679932e-01</leafValues></_>
        <_>
          <internalNodes>
            0 -1 157 -9.2341806739568710e-03</internalNodes>
          <leafValues>
            1.8814210593700409e-01 -1.4479359984397888e-01</leafValues></_>
        <_>
          <internalNodes>
            0 -1 53 -3.9844191633164883e-04</internalNodes>
          <leafValues>
            -2.5186279416084290e-01 1.2527377903461456e-01</leafValues></_>
        <_>
          <internalNodes>
            0 -1 557 1.7421461641788483e-02</internalNodes>
          <leafValues>
            6.5918922424316406e-02 -3.9109608530998230e-01</leafValues></_>
        <_>
          <internalNodes>
            0 -1 276 -9.7865831776289269e-06</internalNodes>
          <leafValues>
            1.3124310970306396e-01 -1.9464324414730072e-01</leafValues></_>
        <_>
          <internalNodes>
            0 -1 927 1.8295455724000931e-02</internalNodes>
          <leafValues>
            3.1410295516252518e-02 -8.6409413814544678e-01</leafValues></_>
        <_>
          <internalNodes>
            0 -1 900 -3.5039694048464298e-03</internalNodes>
          <leafValues>
            5.4668623208999634e-01 -5.7710617780685425e-02</leafValues></_>
        <_>
          <internalNodes>
            0 -1 131 -1.8674385547637939e-01</internalNodes>
          <leafValues>
            5.7768326997756958e-01 -4.1251935064792633e-02</leafValues></_>
        <_>
          <internalNodes>
            0 -1 268 1.7356492578983307e-02</internalNodes>
          <leafValues>
            4.0791861712932587e-02 -7.1592986583709717e-01</leafValues></_>
        <_>
          <internalNodes>
            0 -1 409 -8.8811479508876801e-03</internalNodes>
          <leafValues>
            4.0217253565788269e-01 -6.8452194333076477e-02</leafValues></_></weakClassifiers></_>
    <!-- stage 11 -->
    <_>
      <maxWeakCount>70</maxWeakCount>
      <stageThreshold>-1.4152282476425171e+00</stageThreshold>
      <weakClassifiers>
        <_>
          <internalNodes>
            0 -1 571 -1.9991680979728699e-02</internalNodes>
          <leafValues>
            -7.3027089238166809e-02 -4.6882793307304382e-01</leafValues></_>
        <_>
          <internalNodes>
            0 -1 37 -2.1451555192470551e-02</internalNodes>
          <leafValues>
            2.2761343419551849e-01 -1.4790639281272888e-01</leafValues></_>
        <_>
          <internalNodes>
            0 -1 982 -9.5729819804546423e-06</internalNodes>
          <leafValues>
            1.3381464779376984e-01 -2.2358329594135284e-01</leafValues></_>
        <_>
          <internalNodes>
            0 -1 273 1.1591957509517670e-01</internalNodes>
          <leafValues>
            -2.7132797986268997e-02 5.8815962076187134e-01</leafValues></_>
        <_>
          <internalNodes>
            0 -1 258 1.0221913456916809e-02</internalNodes>
          <leafValues>
            -1.7929096519947052e-01 1.7066448926925659e-01</leafValues></_>
        <_>
          <internalNodes>
            0 -1 543 -6.1134528368711472e-03</internalNodes>
          <leafValues>
            1.9424813985824585e-01 -1.4121451973915100e-01</leafValues></_>
        <_>
          <internalNodes>
            0 -1 1081 9.7530279308557510e-03</internalNodes>
          <leafValues>
            8.0419018864631653e-02 -3.8852506875991821e-01</leafValues></_>
        <_>
          <internalNodes>
            0 -1 1030 1.5150058083236217e-02</internalNodes>
          <leafValues>
            -1.1799311637878418e-01 2.7297103404998779e-01</leafValues></_>
        <_>
          <internalNodes>
            0 -1 1035 -1.1702939867973328e-02</internalNodes>
          <leafValues>
            3.4109377861022949e-01 -8.5124962031841278e-02</leafValues></_>
        <_>
          <internalNodes>
            0 -1 504 -2.0215641707181931e-02</internalNodes>
          <leafValues>
            2.0645855367183685e-01 -1.2482790648937225e-01</leafValues></_>
        <_>
          <internalNodes>
            0 -1 657 -1.4615965483244509e-04</internalNodes>
          <leafValues>
            -3.2929149270057678e-01 9.2270582914352417e-02</leafValues></_>
        <_>
          <internalNodes>
            0 -1 653 2.4081869050860405e-03</internalNodes>
          <leafValues>
            -5.7185478508472443e-02 4.3621116876602173e-01</leafValues></_>
        <_>
          <internalNodes>
            0 -1 694 -2.5669848546385765e-03</internalNodes>
          <leafValues>
            4.2788591980934143e-01 -6.9191537797451019e-02</leafValues></_>
        <_>
          <internalNodes>
            0 -1 445 -9.5803679869277403e-06</internalNodes>
          <leafValues>
            1.1108238995075226e-01 -2.2247068583965302e-01</leafValues></_>
        <_>
          <internalNodes>
            0 -1 482 -2.5746212340891361e-03</internalNodes>
          <leafValues>
            2.5293061137199402e-01 -1.0793121904134750e-01</leafValues></_>
        <_>
          <internalNodes>
            0 -1 376 -2.3655271434108727e-05</internalNodes>
          <leafValues>
            1.2638506293296814e-01 -2.0879621803760529e-01</leafValues></_>
        <_>
          <internalNodes>
            0 -1 519 -1.3663652352988720e-03</internalNodes>
          <leafValues>
            2.6728412508964539e-01 -1.0402969270944595e-01</leafValues></_>
        <_>
          <internalNodes>
            0 -1 79 -1.2126741057727486e-04</internalNodes>
          <leafValues>
            -2.5185853242874146e-01 1.1191020160913467e-01</leafValues></_>
        <_>
          <internalNodes>
            0 -1 79 3.5037973430007696e-04</internalNodes>
          <leafValues>
            8.1452570855617523e-02 -3.4933635592460632e-01</leafValues></_>
        <_>
          <internalNodes>
            0 -1 26 2.0888315513730049e-02</internalNodes>
          <leafValues>
            -6.2354240566492081e-02 4.1243264079093933e-01</leafValues></_>
        <_>
          <internalNodes>
            0 -1 199 -2.3262726608663797e-03</internalNodes>
          <leafValues>
            1.8345966935157776e-01 -1.3598537445068359e-01</leafValues></_>
        <_>
          <internalNodes>
            0 -1 230 -1.8837454263120890e-05</internalNodes>
          <leafValues>
            1.3899618387222290e-01 -1.9259230792522430e-01</leafValues></_>
        <_>
          <internalNodes>
            0 -1 1041 -3.1646750867366791e-03</internalNodes>
          <leafValues>
            2.3165379464626312e-01 -1.1006754636764526e-01</leafValues></_>
        <_>
          <internalNodes>
            0 -1 191 -8.6572200059890747e-02</internalNodes>
          <leafValues>
            4.7267216444015503e-01 -5.7193826884031296e-02</leafValues></_>
        <_>
          <internalNodes>
            0 -1 481 6.4905583858489990e-03</internalNodes>
          <leafValues>
            -1.2740902602672577e-01 1.9381758570671082e-01</leafValues></_>
        <_>
          <internalNodes>
            0 -1 443 -2.0479518920183182e-02</internalNodes>
          <leafValues>
            -6.0973328351974487e-01 4.6587478369474411e-02</leafValues></_>
        <_>
          <internalNodes>
            0 -1 726 -2.0358058100100607e-04</internalNodes>
          <leafValues>
            -2.3921899497509003e-01 1.0467242449522018e-01</leafValues></_>
        <_>
          <internalNodes>
            0 -1 980 -8.6931700934655964e-05</internalNodes>
          <leafValues>
            1.3380415737628937e-01 -1.9224461913108826e-01</leafValues></_>
        <_>
          <internalNodes>
            0 -1 561 -1.6382373869419098e-02</internalNodes>
          <leafValues>
            -8.1606346368789673e-01 2.5300083681941032e-02</leafValues></_>
        <_>
          <internalNodes>
            0 -1 905 -1.0423961095511913e-02</internalNodes>
          <leafValues>
            -4.8420646786689758e-01 4.0824279189109802e-02</leafValues></_>
        <_>
          <internalNodes>
            0 -1 1002 6.5037673339247704e-03</internalNodes>
          <leafValues>
            -9.6454888582229614e-02 2.4750597774982452e-01</leafValues></_>
        <_>
          <internalNodes>
            0 -1 383 -7.1524619124829769e-03</internalNodes>
          <leafValues>
            1.0504063963890076e-01 -2.2946080565452576e-01</leafValues></_>
        <_>
          <internalNodes>
            0 -1 162 -9.8370447754859924e-02</internalNodes>
          <leafValues>
            2.8954836726188660e-01 -8.5901841521263123e-02</leafValues></_>
        <_>
          <internalNodes>
            0 -1 760 1.7843514680862427e-02</internalNodes>
          <leafValues>
            -5.8500774204730988e-02 4.1051384806632996e-01</leafValues></_>
        <_>
          <internalNodes>
            0 -1 891 -2.3904237896203995e-02</internalNodes>
          <leafValues>
            -9.0292221307754517e-01 2.6598876342177391e-02</leafValues></_>
        <_>
          <internalNodes>
            0 -1 566 4.2848445475101471e-02</internalNodes>
          <leafValues>
            -6.4868472516536713e-02 4.1597074270248413e-01</leafValues></_>
        <_>
          <internalNodes>
            0 -1 922 -1.1014723895641509e-05</internalNodes>
          <leafValues>
            1.7183399200439453e-01 -1.4106148481369019e-01</leafValues></_>
        <_>
          <internalNodes>
            0 -1 152 1.5614815056324005e-01</internalNodes>
          <leafValues>
            -4.9571324139833450e-02 4.8886564373970032e-01</leafValues></_>
        <_>
          <internalNodes>
            0 -1 666 6.6650109365582466e-03</internalNodes>
          <leafValues>
            6.6795840859413147e-02 -3.7280353903770447e-01</leafValues></_>
        <_>
          <internalNodes>
            0 -1 550 -3.7030000239610672e-03</internalNodes>
          <leafValues>
            1.9402143359184265e-01 -1.4531336724758148e-01</leafValues></_>
        <_>
          <internalNodes>
            0 -1 536 -6.1741145327687263e-04</internalNodes>
