<?xml version="1.0"?>
<opencv_storage>
<stage15>
  <maxWeakCount>82</maxWeakCount>
  <stageThreshold>-1.3267816305160522e+00</stageThreshold>
  <weakClassifiers>
    <_>
      <internalNodes>
        0 -1 150144 2.2654864937067032e-02</internalNodes>
      <leafValues>
        -3.3333334326744080e-01 6.6292709670960903e-03</leafValues></_>
    <_>
      <internalNodes>
        0 -1 264720 -3.8623507134616375e-04</internalNodes>
      <leafValues>
        -3.9444383978843689e-01 6.6467724740505219e-02</leafValues></_>
    <_>
      <internalNodes>
        0 -1 130698 -2.3492913693189621e-02</internalNodes>
      <leafValues>
        3.1903439760208130e-01 -7.0980943739414215e-02</leafValues></_>
    <_>
      <internalNodes>
        0 -1 141047 2.4687167257070541e-02</internalNodes>
      <leafValues>
        -9.8406940698623657e-02 3.0898958444595337e-01</leafValues></_>
    <_>
      <internalNodes>
        0 -1 269227 -1.6795507399365306e-03</internalNodes>
      <leafValues>
        1.9065269827842712e-01 -1.3753364980220795e-01</leafValues></_>
    <_>
      <internalNodes>
        0 -1 273480 -2.9605795134557411e-05</internalNodes>
      <leafValues>
        1.0313231498003006e-01 -2.1748913824558258e-01</leafValues></_>
    <_>
      <internalNodes>
        0 -1 297790 -3.2275095582008362e-02</internalNodes>
      <leafValues>
        3.8564646244049072e-01 -6.4705431461334229e-02</leafValues></_>
    <_>
      <internalNodes>
        0 -1 138385 -1.0409558308310807e-04</internalNodes>
      <leafValues>
        1.2171146273612976e-01 -1.8807257711887360e-01</leafValues></_>
    <_>
      <internalNodes>
        0 -1 12117 1.9255706865806133e-04</internalNodes>
      <leafValues>
        9.9147975444793701e-02 -2.2973419725894928e-01</leafValues></_>
    <_>
      <internalNodes>
        0 -1 112221 1.9201021641492844e-02</internalNodes>
      <leafValues>
        3.9530675858259201e-02 -4.5600667595863342e-01</leafValues></_>
    <_>
      <internalNodes>
        0 -1 79862 -3.5084439441561699e-03</internalNodes>
      <leafValues>
        2.2391217947006226e-01 -9.3666918575763702e-02</leafValues></_>
    <_>
      <internalNodes>
        0 -1 264633 -2.7145186904817820e-03</internalNodes>
      <leafValues>
        1.7601488530635834e-01 -1.1774672567844391e-01</leafValues></_>
    <_>
      <internalNodes>
        0 -1 20706 -3.1948317773640156e-03</internalNodes>
      <leafValues>
        1.9332242012023926e-01 -1.2120243161916733e-01</leafValues></_>
    <_>
      <internalNodes>
        0 -1 11145 -1.5321276150643826e-03</internalNodes>
      <leafValues>
        -2.0075276494026184e-01 1.1829273402690887e-01</leafValues></_>
    <_>
      <internalNodes>
        0 -1 210956 -3.4505007788538933e-03</internalNodes>
      <leafValues>
        2.6466658711433411e-01 -8.6849108338356018e-02</leafValues></_>
    <_>
      <internalNodes>
        0 -1 149933 -9.7579049906926230e-06</internalNodes>
      <leafValues>
        1.4190994203090668e-01 -1.3977344334125519e-01</leafValues></_>
    <_>
      <internalNodes>
        0 -1 194571 -6.0458220541477203e-03</internalNodes>
      <leafValues>
        -5.4624563455581665e-01 3.4741226583719254e-02</leafValues></_>
    <_>
      <internalNodes>
        0 -1 196869 2.9278732836246490e-04</internalNodes>
      <leafValues>
        7.6876781880855560e-02 -2.5867623090744019e-01</leafValues></_>
    <_>
      <internalNodes>
        0 -1 211156 -1.5454045496881008e-02</internalNodes>
      <leafValues>
        1.3582444190979004e-01 -1.6219496726989746e-01</leafValues></_>
    <_>
      <internalNodes>
        0 -1 131118 2.6721504982560873e-03</internalNodes>
      <leafValues>
        -4.5627582818269730e-02 4.1092362999916077e-01</leafValues></_>
    <_>
      <internalNodes>
        0 -1 174340 -9.3885842943564057e-04</internalNodes>
      <leafValues>
        2.1777959167957306e-01 -9.6553146839141846e-02</leafValues></_>
    <_>
      <internalNodes>
        0 -1 175239 1.1521796695888042e-03</internalNodes>
      <leafValues>
        -9.4350844621658325e-02 2.4340490996837616e-01</leafValues></_>
    <_>
      <internalNodes>
        0 -1 269432 5.1524920854717493e-04</internalNodes>
      <leafValues>
        6.5081387758255005e-02 -3.0661433935165405e-01</leafValues></_>
    <_>
      <internalNodes>
        0 -1 194260 1.3933651149272919e-02</internalNodes>
      <leafValues>
        -8.9857906103134155e-02 2.2579570114612579e-01</leafValues></_>
    <_>
      <internalNodes>
        0 -1 70347 -4.0383197367191315e-02</internalNodes>
      <leafValues>
        -5.8768635988235474e-01 3.6773644387722015e-02</leafValues></_>
    <_>
      <internalNodes>
        0 -1 196867 -2.7798232622444630e-04</internalNodes>
      <leafValues>
        -3.1344231963157654e-01 6.2038749456405640e-02</leafValues></_>
    <_>
      <internalNodes>
        0 -1 21538 -9.9202804267406464e-03</internalNodes>
      <leafValues>
        4.1524842381477356e-01 -4.9875106662511826e-02</leafValues></_>
    <_>
      <internalNodes>
        0 -1 188483 2.7006184682250023e-03</internalNodes>
      <leafValues>
        -6.6404543817043304e-02 2.8624215722084045e-01</leafValues></_>
    <_>
      <internalNodes>
        0 -1 6231 -2.4157892167568207e-01</internalNodes>
      <leafValues>
        2.3420524597167969e-01 -8.6750730872154236e-02</leafValues></_>
    <_>
      <internalNodes>
        0 -1 38768 6.9623425602912903e-02</internalNodes>
      <leafValues>
        -4.7925736755132675e-02 4.3605473637580872e-01</leafValues></_>
    <_>
      <internalNodes>
        0 -1 288787 1.6647223383188248e-03</internalNodes>
      <leafValues>
        -8.2510411739349365e-02 2.3757278919219971e-01</leafValues></_>
    <_>
      <internalNodes>
        0 -1 60553 -2.7078106999397278e-02</internalNodes>
      <leafValues>
        -7.6229047775268555e-01 2.6635443791747093e-02</leafValues></_>
    <_>
      <internalNodes>
        0 -1 14479 -1.1292696581222117e-04</internalNodes>
      <leafValues>
        -2.1755091845989227e-01 8.5608787834644318e-02</leafValues></_>
    <_>
      <internalNodes>
        0 -1 12114 2.6564178988337517e-03</internalNodes>
      <leafValues>
        -4.4727787375450134e-02 4.7180333733558655e-01</leafValues></_>
    <_>
      <internalNodes>
        0 -1 205483 -1.6656223684549332e-02</internalNodes>
      <leafValues>
        3.4994751214981079e-01 -5.6072112172842026e-02</leafValues></_>
    <_>
      <internalNodes>
        0 -1 205374 2.5535593158565462e-04</internalNodes>
      <leafValues>
        8.2903668284416199e-02 -2.9320722818374634e-01</leafValues></_>
    <_>
      <internalNodes>
        0 -1 103466 -1.0326546616852283e-03</internalNodes>
      <leafValues>
        8.6156301200389862e-02 -2.2757869958877563e-01</leafValues></_>
    <_>
      <internalNodes>
        0 -1 55068 -5.0930203869938850e-03</internalNodes>
      <leafValues>
        2.5893574953079224e-01 -8.2201845943927765e-02</leafValues></_>
    <_>
      <internalNodes>
        0 -1 159832 -8.3460315363481641e-04</internalNodes>
      <leafValues>
        1.5991023182868958e-01 -1.2234310060739517e-01</leafValues></_>
    <_>
      <internalNodes>
        0 -1 137732 6.8501587957143784e-03</internalNodes>
      <leafValues>
        6.9091409444808960e-02 -2.7270799875259399e-01</leafValues></_>
    <_>
      <internalNodes>
        0 -1 162822 -2.3513664491474628e-03</internalNodes>
      <leafValues>
        2.2969107329845428e-01 -8.6801759898662567e-02</leafValues></_>
    <_>
      <internalNodes>
        0 -1 23883 1.4154588803648949e-02</internalNodes>
      <leafValues>
        -4.5568499714136124e-02 3.9741784334182739e-01</leafValues></_>
    <_>
      <internalNodes>
        0 -1 218312 7.7347131446003914e-03</internalNodes>
      <leafValues>
        -9.2886403203010559e-02 2.0046956837177277e-01</leafValues></_>
    <_>
      <internalNodes>
        0 -1 227393 -1.1090408079326153e-03</internalNodes>
      <leafValues>
        2.2937375307083130e-01 -1.0082569718360901e-01</leafValues></_>
    <_>
      <internalNodes>
        0 -1 159746 -1.5600441955029964e-02</internalNodes>
      <leafValues>
        -5.0714856386184692e-01 3.6534480750560760e-02</leafValues></_>
    <_>
      <internalNodes>
        0 -1 296217 -2.7073780074715614e-03</internalNodes>
      <leafValues>
        4.1275483369827271e-01 -4.6951036900281906e-02</leafValues></_>
    <_>
      <internalNodes>
        0 -1 185258 -1.3040374964475632e-02</internalNodes>
      <leafValues>
        -4.1949933767318726e-01 4.3127242475748062e-02</leafValues></_>
    <_>
      <internalNodes>
        0 -1 192862 -3.7868119776248932e-02</internalNodes>
      <leafValues>
        2.2164487838745117e-01 -9.7014196217060089e-02</leafValues></_>
    <_>
      <internalNodes>
        0 -1 230083 -8.1209078431129456e-02</internalNodes>
      <leafValues>
        -6.8077898025512695e-01 2.9774582013487816e-02</leafValues></_>
    <_>
      <internalNodes>
        0 -1 210467 7.5875613838434219e-03</internalNodes>
      <leafValues>
        2.0483991131186485e-02 -6.8703085184097290e-01</leafValues></_>
    <_>
      <internalNodes>
        0 -1 232984 1.9642134429886937e-04</internalNodes>
      <leafValues>
        -1.1141760647296906e-01 1.8646065890789032e-01</leafValues></_>
    <_>
      <internalNodes>
        0 -1 228500 -2.1357196383178234e-03</internalNodes>
      <leafValues>
        5.1419383287429810e-01 -4.4396430253982544e-02</leafValues></_>
    <_>
      <internalNodes>
        0 -1 225531 -1.8710710108280182e-02</internalNodes>
      <leafValues>
        -6.7768883705139160e-01 3.3218726515769958e-02</leafValues></_>
    <_>
      <internalNodes>
        0 -1 164 1.0037515312433243e-03</internalNodes>
      <leafValues>
        9.3362495303153992e-02 -1.9416111707687378e-01</leafValues></_>
    <_>
      <internalNodes>
        0 -1 297498 2.8098009526729584e-02</internalNodes>
      <leafValues>
        3.8467019796371460e-02 -5.1368635892868042e-01</leafValues></_>
    <_>
      <internalNodes>
        0 -1 258384 7.4313897639513016e-03</internalNodes>
      <leafValues>
        3.1845323741436005e-02 -5.6014847755432129e-01</leafValues></_>
    <_>
      <internalNodes>
        0 -1 211955 3.4850593656301498e-03</internalNodes>
      <leafValues>
        -4.4807061553001404e-02 4.6960857510566711e-01</leafValues></_>
    <_>
      <internalNodes>
        0 -1 277606 6.9448202848434448e-03</internalNodes>
      <leafValues>
        5.8193553239107132e-02 -3.3734095096588135e-01</leafValues></_>
    <_>
      <internalNodes>
        0 -1 236774 1.5588362514972687e-01</internalNodes>
      <leafValues>
        -4.8542384058237076e-02 4.4518235325813293e-01</leafValues></_>
    <_>
      <internalNodes>
        0 -1 234782 -1.4099344611167908e-02</internalNodes>
      <leafValues>
        7.0079594850540161e-01 -2.3977167904376984e-02</leafValues></_>
    <_>
      <internalNodes>
        0 -1 240627 -1.3418985763564706e-03</internalNodes>
      <leafValues>
        1.9113117456436157e-01 -1.0096351057291031e-01</leafValues></_>
    <_>
      <internalNodes>
        0 -1 264227 9.6015483140945435e-03</internalNodes>
      <leafValues>
        -2.0749230682849884e-01 9.6823178231716156e-02</leafValues></_>
    <_>
      <internalNodes>
        0 -1 212247 -1.7072424292564392e-01</internalNodes>
      <leafValues>
        -5.1167023181915283e-01 4.0727928280830383e-02</leafValues></_>
    <_>
      <internalNodes>
        0 -1 294315 -1.1188814416527748e-02</internalNodes>
      <leafValues>
        -2.7271017432212830e-01 6.9292761385440826e-02</leafValues></_>
    <_>
      <internalNodes>
        0 -1 182670 5.7326667010784149e-03</internalNodes>
      <leafValues>
        -1.3791070878505707e-01 1.4633299410343170e-01</leafValues></_>
    <_>
      <internalNodes>
        0 -1 192609 1.7510095611214638e-02</internalNodes>
      <leafValues>
        -7.1214504539966583e-02 2.8409138321876526e-01</leafValues></_>
    <_>
      <internalNodes>
        0 -1 71901 2.1568493917584419e-02</internalNodes>
      <leafValues>
        3.3906973898410797e-02 -6.0996603965759277e-01</leafValues></_>
    <_>
      <internalNodes>
        0 -1 242180 1.3896320015192032e-02</internalNodes>
      <leafValues>
        2.3830754682421684e-02 -6.0474532842636108e-01</leafValues></_>
    <_>
      <internalNodes>
        0 -1 55156 -8.7935149669647217e-02</internalNodes>
      <leafValues>
        -2.2218185663223267e-01 7.5582414865493774e-02</leafValues></_>
    <_>
      <internalNodes>
        0 -1 185672 5.2439074963331223e-02</internalNodes>
      <leafValues>
        -6.8506591022014618e-02 2.8386214375495911e-01</leafValues></_>
    <_>
      <internalNodes>
        0 -1 262273 -2.3429631255567074e-03</internalNodes>
      <leafValues>
        1.0802440345287323e-01 -2.0272929966449738e-01</leafValues></_>
    <_>
      <internalNodes>
        0 -1 150519 -8.0592427402734756e-03</internalNodes>
      <leafValues>
        4.3779319524765015e-01 -4.2048063129186630e-02</leafValues></_>
    <_>
      <internalNodes>
        0 -1 170524 -1.6758422134444118e-04</internalNodes>
      <leafValues>
        -2.1086789667606354e-01 1.0135804861783981e-01</leafValues></_>
    <_>
      <internalNodes>
        0 -1 161034 3.0145615339279175e-02</internalNodes>
      <leafValues>
        3.1260650604963303e-02 -6.3211584091186523e-01</leafValues></_>
    <_>
      <internalNodes>
        0 -1 298487 -3.1051243422552943e-04</internalNodes>
      <leafValues>
        -2.4200397729873657e-01 7.5305894017219543e-02</leafValues></_>
    <_>
      <internalNodes>
        0 -1 236089 7.6758332550525665e-02</internalNodes>
      <leafValues>
        7.0381842553615570e-02 -2.8400990366935730e-01</leafValues></_>
    <_>
      <internalNodes>
        0 -1 56427 -1.3679972290992737e-01</internalNodes>
      <leafValues>
        -6.3686621189117432e-01 2.7399053797125816e-02</leafValues></_>
    <_>
      <internalNodes>
        0 -1 258982 -2.0676999702118337e-04</internalNodes>
      <leafValues>
        1.1356259137392044e-01 -1.5934513509273529e-01</leafValues></_>
    <_>
      <internalNodes>
        0 -1 211196 8.5512846708297729e-03</internalNodes>
      <leafValues>
        -9.6599020063877106e-02 2.0751531422138214e-01</leafValues></_>
    <_>
      <internalNodes>
        0 -1 268474 -4.7827855451032519e-04</internalNodes>
      <leafValues>
        1.1697889864444733e-01 -2.0848751068115234e-01</leafValues></_>
    <_>
      <internalNodes>
        0 -1 151786 -1.2271977029740810e-03</internalNodes>
      <leafValues>
        1.7656898498535156e-01 -1.0787693411111832e-01</leafValues></_>
    <_>
      <internalNodes>
        0 -1 226476 5.2287979051470757e-03</internalNodes>
      <leafValues>
        5.0904747098684311e-02 -3.6824798583984375e-01</leafValues></_></weakClassifiers></stage15>
</opencv_storage>
