<?xml version="1.0"?>
<opencv_storage>
<stage1>
  <maxWeakCount>16</maxWeakCount>
  <stageThreshold>-1.9891754388809204e+00</stageThreshold>
  <weakClassifiers>
    <_>
      <internalNodes>
        0 -1 114681 -5.1333243027329445e-03</internalNodes>
      <leafValues>
        2.5485625863075256e-01 -6.8260508775711060e-01</leafValues></_>
    <_>
      <internalNodes>
        0 -1 178854 -1.0841956362128258e-02</internalNodes>
      <leafValues>
        3.1174266338348389e-01 -5.6191194057464600e-01</leafValues></_>
    <_>
      <internalNodes>
        0 -1 158776 -4.1141994297504425e-03</internalNodes>
      <leafValues>
        3.8537272810935974e-01 -4.0353816747665405e-01</leafValues></_>
    <_>
      <internalNodes>
        0 -1 63725 -1.5558436512947083e-02</internalNodes>
      <leafValues>
        4.9189972877502441e-01 -3.2192447781562805e-01</leafValues></_>
    <_>
      <internalNodes>
        0 -1 216115 -1.8363824114203453e-02</internalNodes>
      <leafValues>
        5.0664818286895752e-01 -2.7807471156120300e-01</leafValues></_>
    <_>
      <internalNodes>
        0 -1 151363 1.4108812436461449e-02</internalNodes>
      <leafValues>
        -2.5892332196235657e-01 4.4862514734268188e-01</leafValues></_>
    <_>
      <internalNodes>
        0 -1 234796 -6.9705690257251263e-03</internalNodes>
      <leafValues>
        4.6015644073486328e-01 -1.7619386315345764e-01</leafValues></_>
    <_>
      <internalNodes>
        0 -1 121234 -9.4591736793518066e-02</internalNodes>
      <leafValues>
        -5.3307902812957764e-01 1.6261525452136993e-01</leafValues></_>
    <_>
      <internalNodes>
        0 -1 242721 -9.7662331536412239e-03</internalNodes>
      <leafValues>
        3.0805265903472900e-01 -2.9089185595512390e-01</leafValues></_>
    <_>
      <internalNodes>
        0 -1 128 -1.1620676144957542e-02</internalNodes>
      <leafValues>
        -4.0991479158401489e-01 2.1472661197185516e-01</leafValues></_>
    <_>
      <internalNodes>
        0 -1 137054 9.1258706524968147e-03</internalNodes>
      <leafValues>
        -2.0559328794479370e-01 3.8265332579612732e-01</leafValues></_>
    <_>
      <internalNodes>
        0 -1 263380 -5.9259787667542696e-04</internalNodes>
      <leafValues>
        2.5179061293601990e-01 -3.2179352641105652e-01</leafValues></_>
    <_>
      <internalNodes>
        0 -1 11442 -8.9540511369705200e-02</internalNodes>
      <leafValues>
        4.0336290001869202e-01 -1.8982492387294769e-01</leafValues></_>
    <_>
      <internalNodes>
        0 -1 166988 1.1815686710178852e-02</internalNodes>
      <leafValues>
        -2.5931867957115173e-01 3.2130521535873413e-01</leafValues></_>
    <_>
      <internalNodes>
        0 -1 8028 -1.0466462001204491e-02</internalNodes>
      <leafValues>
        4.1469827294349670e-01 -1.6771206259727478e-01</leafValues></_>
    <_>
      <internalNodes>
        0 -1 132252 1.4707045629620552e-02</internalNodes>
      <leafValues>
        -1.5030694007873535e-01 5.1371651887893677e-01</leafValues></_></weakClassifiers></stage1>
</opencv_storage>
