<?xml version="1.0"?>
<opencv_storage>
<stage5>
  <maxWeakCount>37</maxWeakCount>
  <stageThreshold>-1.5564049482345581e+00</stageThreshold>
  <weakClassifiers>
    <_>
      <internalNodes>
        0 -1 5878 -3.6425918340682983e-02</internalNodes>
      <leafValues>
        2.9561528563499451e-01 -3.9542666077613831e-01</leafValues></_>
    <_>
      <internalNodes>
        0 -1 187903 -2.1682294085621834e-02</internalNodes>
      <leafValues>
        2.3689423501491547e-01 -3.7448409199714661e-01</leafValues></_>
    <_>
      <internalNodes>
        0 -1 143192 1.8362153321504593e-02</internalNodes>
      <leafValues>
        -1.8677870929241180e-01 3.2971253991127014e-01</leafValues></_>
    <_>
      <internalNodes>
        0 -1 5685 -8.2430317997932434e-03</internalNodes>
      <leafValues>
        -4.5189714431762695e-01 1.2017115950584412e-01</leafValues></_>
    <_>
      <internalNodes>
        0 -1 273156 -1.0842387382581364e-05</internalNodes>
      <leafValues>
        1.9884346425533295e-01 -2.6382586359977722e-01</leafValues></_>
    <_>
      <internalNodes>
        0 -1 176100 -9.9590257741510868e-04</internalNodes>
      <leafValues>
        3.4861820936203003e-01 -1.4492230117321014e-01</leafValues></_>
    <_>
      <internalNodes>
        0 -1 205374 3.0666016391478479e-04</internalNodes>
      <leafValues>
        1.5548352897167206e-01 -3.5912752151489258e-01</leafValues></_>
    <_>
      <internalNodes>
        0 -1 205374 -2.7338950894773006e-04</internalNodes>
      <leafValues>
        -4.8750531673431396e-01 7.9402998089790344e-02</leafValues></_>
    <_>
      <internalNodes>
        0 -1 176806 4.3001992162317038e-04</internalNodes>
      <leafValues>
        -1.5211805701255798e-01 3.2246094942092896e-01</leafValues></_>
    <_>
      <internalNodes>
        0 -1 15590 4.6062678098678589e-01</internalNodes>
      <leafValues>
        8.6194939911365509e-02 -8.0471104383468628e-01</leafValues></_>
    <_>
      <internalNodes>
        0 -1 142343 -8.3441533148288727e-02</internalNodes>
      <leafValues>
        -5.0079846382141113e-01 6.6684976220130920e-02</leafValues></_>
    <_>
      <internalNodes>
        0 -1 37576 4.1615124791860580e-04</internalNodes>
      <leafValues>
        1.5326853096485138e-01 -3.0619305372238159e-01</leafValues></_>
    <_>
      <internalNodes>
        0 -1 116664 -2.6463471353054047e-02</internalNodes>
      <leafValues>
        -6.5084218978881836e-01 6.1996974050998688e-02</leafValues></_>
    <_>
      <internalNodes>
        0 -1 137777 -9.9380795290926471e-06</internalNodes>
      <leafValues>
        1.0976764559745789e-01 -3.9697280526161194e-01</leafValues></_>
    <_>
      <internalNodes>
        0 -1 168217 -1.3727506157010794e-03</internalNodes>
      <leafValues>
        5.9710824489593506e-01 -8.8422559201717377e-02</leafValues></_>
    <_>
      <internalNodes>
        0 -1 82533 1.7893876135349274e-01</internalNodes>
      <leafValues>
        -6.5230444073677063e-02 6.2699526548385620e-01</leafValues></_>
    <_>
      <internalNodes>
        0 -1 105594 -8.2328498363494873e-02</internalNodes>
      <leafValues>
        5.1388764381408691e-01 -9.9918700754642487e-02</leafValues></_>
    <_>
      <internalNodes>
        0 -1 293870 1.7372887814417481e-03</internalNodes>
      <leafValues>
        -6.6347390413284302e-02 5.1444381475448608e-01</leafValues></_>
    <_>
      <internalNodes>
        0 -1 146461 1.7277501523494720e-02</internalNodes>
      <leafValues>
        -1.4264698326587677e-01 2.7299922704696655e-01</leafValues></_>
    <_>
      <internalNodes>
        0 -1 224095 -9.9043138325214386e-03</internalNodes>
      <leafValues>
        -5.2053958177566528e-01 8.5380852222442627e-02</leafValues></_>
    <_>
      <internalNodes>
        0 -1 4398 -2.9604136943817139e-04</internalNodes>
      <leafValues>
        -3.5048389434814453e-01 9.9497161805629730e-02</leafValues></_>
    <_>
      <internalNodes>
        0 -1 252992 9.6185531219816767e-06</internalNodes>
      <leafValues>
        -1.7620103061199188e-01 2.2227160632610321e-01</leafValues></_>
    <_>
      <internalNodes>
        0 -1 218172 -5.0534538924694061e-02</internalNodes>
      <leafValues>
        -6.8956273794174194e-01 6.2157381325960159e-02</leafValues></_>
    <_>
      <internalNodes>
        0 -1 248564 -6.6524045541882515e-03</internalNodes>
      <leafValues>
        1.6070412099361420e-01 -2.3979844152927399e-01</leafValues></_>
    <_>
      <internalNodes>
        0 -1 87852 -5.8217620849609375e-01</internalNodes>
      <leafValues>
        -7.9331636428833008e-01 4.9142338335514069e-02</leafValues></_>
    <_>
      <internalNodes>
        0 -1 139894 -9.0510342270135880e-03</internalNodes>
      <leafValues>
        2.1557629108428955e-01 -1.9185799360275269e-01</leafValues></_>
    <_>
      <internalNodes>
        0 -1 136919 1.6876321285963058e-02</internalNodes>
      <leafValues>
        1.1665238440036774e-01 -3.8889396190643311e-01</leafValues></_>
    <_>
      <internalNodes>
        0 -1 176820 -8.7954197078943253e-04</internalNodes>
      <leafValues>
        3.3085533976554871e-01 -1.4180949330329895e-01</leafValues></_>
    <_>
      <internalNodes>
        0 -1 7869 -2.8846465284004807e-04</internalNodes>
      <leafValues>
        -3.2032203674316406e-01 1.2595136463642120e-01</leafValues></_>
    <_>
      <internalNodes>
        0 -1 247548 -4.0454291738569736e-03</internalNodes>
      <leafValues>
        1.9108368456363678e-01 -2.1118141710758209e-01</leafValues></_>
    <_>
      <internalNodes>
        0 -1 277528 4.8585161566734314e-03</internalNodes>
      <leafValues>
        8.5380248725414276e-02 -4.7638922929763794e-01</leafValues></_>
    <_>
      <internalNodes>
        0 -1 150579 -1.7449196428060532e-02</internalNodes>
      <leafValues>
        3.1683427095413208e-01 -1.4251457154750824e-01</leafValues></_>
    <_>
      <internalNodes>
        0 -1 220942 -2.2600019292440265e-04</internalNodes>
      <leafValues>
        -3.5037586092948914e-01 1.1383960396051407e-01</leafValues></_>
    <_>
      <internalNodes>
        0 -1 227620 2.8698300011456013e-03</internalNodes>
      <leafValues>
        -6.7201815545558929e-02 6.6286081075668335e-01</leafValues></_>
    <_>
      <internalNodes>
        0 -1 296017 -1.4291462721303105e-03</internalNodes>
      <leafValues>
        5.5261963605880737e-01 -5.6883379817008972e-02</leafValues></_>
    <_>
      <internalNodes>
        0 -1 195256 -3.5604233853518963e-03</internalNodes>
      <leafValues>
        -6.3365709781646729e-01 6.0675941407680511e-02</leafValues></_>
    <_>
      <internalNodes>
        0 -1 205623 -1.0025687515735626e-02</internalNodes>
      <leafValues>
        2.4739226698875427e-01 -1.4673341810703278e-01</leafValues></_></weakClassifiers></stage5>
</opencv_storage>
