<?xml version="1.0"?>
<opencv_storage>
<stage2>
  <maxWeakCount>26</maxWeakCount>
  <stageThreshold>-1.9355407953262329e+00</stageThreshold>
  <weakClassifiers>
    <_>
      <internalNodes>
        0 -1 179822 -6.9257058203220367e-03</internalNodes>
      <leafValues>
        3.5260930657386780e-01 -4.1876047849655151e-01</leafValues></_>
    <_>
      <internalNodes>
        0 -1 114671 -2.7168137021362782e-03</internalNodes>
      <leafValues>
        3.1390741467475891e-01 -4.0795013308525085e-01</leafValues></_>
    <_>
      <internalNodes>
        0 -1 149350 -9.7762218501884490e-05</internalNodes>
      <leafValues>
        3.0983307957649231e-01 -3.6365160346031189e-01</leafValues></_>
    <_>
      <internalNodes>
        0 -1 247554 1.4188976958394051e-02</internalNodes>
      <leafValues>
        -3.8021767139434814e-01 2.6755791902542114e-01</leafValues></_>
    <_>
      <internalNodes>
        0 -1 2742 4.3692952394485474e-01</internalNodes>
      <leafValues>
        1.2800203263759613e-01 -8.2579952478408813e-01</leafValues></_>
    <_>
      <internalNodes>
        0 -1 75572 -2.0834955573081970e-01</internalNodes>
      <leafValues>
        -7.6075011491775513e-01 1.2554544210433960e-01</leafValues></_>
    <_>
      <internalNodes>
        0 -1 268832 -1.0461799683980644e-04</internalNodes>
      <leafValues>
        2.1935163438320160e-01 -3.5494315624237061e-01</leafValues></_>
    <_>
      <internalNodes>
        0 -1 190863 -2.8695888817310333e-02</internalNodes>
      <leafValues>
        3.7476769089698792e-01 -2.0333470404148102e-01</leafValues></_>
    <_>
      <internalNodes>
        0 -1 27043 -5.8504450321197510e-01</internalNodes>
      <leafValues>
        -7.6485598087310791e-01 1.0229035466909409e-01</leafValues></_>
    <_>
      <internalNodes>
        0 -1 75505 -3.3281147480010986e-02</internalNodes>
      <leafValues>
        2.9700431227684021e-01 -2.8510832786560059e-01</leafValues></_>
    <_>
      <internalNodes>
        0 -1 128206 -7.6609794050455093e-03</internalNodes>
      <leafValues>
        2.6749652624130249e-01 -3.2438361644744873e-01</leafValues></_>
    <_>
      <internalNodes>
        0 -1 58560 -1.3967630267143250e-01</internalNodes>
      <leafValues>
        7.0827454328536987e-01 -1.0235563665628433e-01</leafValues></_>
    <_>
      <internalNodes>
        0 -1 177480 1.2200237251818180e-03</internalNodes>
      <leafValues>
        -8.7169311940670013e-02 6.7206197977066040e-01</leafValues></_>
    <_>
      <internalNodes>
        0 -1 268140 -1.4024841948412359e-04</internalNodes>
      <leafValues>
        2.5902098417282104e-01 -2.7418854832649231e-01</leafValues></_>
    <_>
      <internalNodes>
        0 -1 200749 -9.6082119271159172e-03</internalNodes>
      <leafValues>
        -7.2672188282012939e-01 1.0012740641832352e-01</leafValues></_>
    <_>
      <internalNodes>
        0 -1 193310 1.9260734319686890e-02</internalNodes>
      <leafValues>
        7.9517155885696411e-02 -7.4004614353179932e-01</leafValues></_>
    <_>
      <internalNodes>
        0 -1 213388 8.6626596748828888e-03</internalNodes>
      <leafValues>
        -1.5609289705753326e-01 4.5313912630081177e-01</leafValues></_>
    <_>
      <internalNodes>
        0 -1 141069 -1.7766766250133514e-02</internalNodes>
      <leafValues>
        4.2753276228904724e-01 -1.4474336802959442e-01</leafValues></_>
    <_>
      <internalNodes>
        0 -1 168217 1.4438936486840248e-03</internalNodes>
      <leafValues>
        -8.3456285297870636e-02 6.6995567083358765e-01</leafValues></_>
    <_>
      <internalNodes>
        0 -1 175629 -1.5962300822138786e-02</internalNodes>
      <leafValues>
        -7.3355638980865479e-01 9.6902973949909210e-02</leafValues></_>
    <_>
      <internalNodes>
        0 -1 173310 -1.2374384095892310e-03</internalNodes>
      <leafValues>
        7.1681308746337891e-01 -1.0113456845283508e-01</leafValues></_>
    <_>
      <internalNodes>
        0 -1 194651 -1.1964323930442333e-02</internalNodes>
      <leafValues>
        -7.4434810876846313e-01 9.5759011805057526e-02</leafValues></_>
    <_>
      <internalNodes>
        0 -1 245004 9.6486136317253113e-04</internalNodes>
      <leafValues>
        -1.0526552796363831e-01 6.7013192176818848e-01</leafValues></_>
    <_>
      <internalNodes>
        0 -1 126563 -3.2747953082434833e-04</internalNodes>
      <leafValues>
        1.8037009239196777e-01 -3.4537863731384277e-01</leafValues></_>
    <_>
      <internalNodes>
        0 -1 245604 4.7682714648544788e-04</internalNodes>
      <leafValues>
        -1.3752815127372742e-01 4.8301374912261963e-01</leafValues></_>
    <_>
      <internalNodes>
        0 -1 247397 2.2445763461291790e-03</internalNodes>
      <leafValues>
        1.4263208210468292e-01 -4.8079672455787659e-01</leafValues></_></weakClassifiers></stage2>
</opencv_storage>
