<?xml version="1.0"?>
<opencv_storage>
<stage13>
  <maxWeakCount>77</maxWeakCount>
  <stageThreshold>-1.3558058738708496e+00</stageThreshold>
  <weakClassifiers>
    <_>
      <internalNodes>
        0 -1 110538 -2.2912997752428055e-02</internalNodes>
      <leafValues>
        2.0472440868616104e-02 -3.3570274710655212e-01</leafValues></_>
    <_>
      <internalNodes>
        0 -1 115411 -6.8656029179692268e-04</internalNodes>
      <leafValues>
        1.0583807528018951e-01 -2.8999769687652588e-01</leafValues></_>
    <_>
      <internalNodes>
        0 -1 227035 -8.6229024454951286e-03</internalNodes>
      <leafValues>
        2.2594016790390015e-01 -1.3399596512317657e-01</leafValues></_>
    <_>
      <internalNodes>
        0 -1 196522 3.0846113804727793e-04</internalNodes>
      <leafValues>
        1.4656184613704681e-01 -2.6763713359832764e-01</leafValues></_>
    <_>
      <internalNodes>
        0 -1 196522 -1.9222356786485761e-04</internalNodes>
      <leafValues>
        -3.1494832038879395e-01 6.8472787737846375e-02</leafValues></_>
    <_>
      <internalNodes>
        0 -1 253419 -1.0545155964791775e-03</internalNodes>
      <leafValues>
        1.4650058746337891e-01 -1.6922758519649506e-01</leafValues></_>
    <_>
      <internalNodes>
        0 -1 72177 9.5968760550022125e-02</internalNodes>
      <leafValues>
        -9.6130155026912689e-02 3.3375149965286255e-01</leafValues></_>
    <_>
      <internalNodes>
        0 -1 45148 5.3463570773601532e-02</internalNodes>
      <leafValues>
        -7.5203850865364075e-02 3.3291745185852051e-01</leafValues></_>
    <_>
      <internalNodes>
        0 -1 139182 -9.7524758893996477e-04</internalNodes>
      <leafValues>
        1.1756391078233719e-01 -2.4139378964900970e-01</leafValues></_>
    <_>
      <internalNodes>
        0 -1 112125 -5.7516869856044650e-04</internalNodes>
      <leafValues>
        1.8709652125835419e-01 -1.4337858557701111e-01</leafValues></_>
    <_>
      <internalNodes>
        0 -1 140647 -1.0745992767624557e-04</internalNodes>
      <leafValues>
        1.2905098497867584e-01 -1.7666473984718323e-01</leafValues></_>
    <_>
      <internalNodes>
        0 -1 1422 -5.0408375263214111e-01</internalNodes>
      <leafValues>
        -6.3694429397583008e-01 4.3003711849451065e-02</leafValues></_>
    <_>
      <internalNodes>
        0 -1 165679 1.5269057825207710e-02</internalNodes>
      <leafValues>
        4.1762188076972961e-02 -4.6593534946441650e-01</leafValues></_>
    <_>
      <internalNodes>
        0 -1 258662 -2.7174263959750533e-04</internalNodes>
      <leafValues>
        1.5504020452499390e-01 -1.5146990120410919e-01</leafValues></_>
    <_>
      <internalNodes>
        0 -1 241589 -3.3846860751509666e-03</internalNodes>
      <leafValues>
        1.8073235452175140e-01 -1.3092148303985596e-01</leafValues></_>
    <_>
      <internalNodes>
        0 -1 239201 1.1435234919190407e-03</internalNodes>
      <leafValues>
        -8.1405572593212128e-02 2.5521644949913025e-01</leafValues></_>
    <_>
      <internalNodes>
        0 -1 213313 -2.0408109412528574e-04</internalNodes>
      <leafValues>
        -2.9782971739768982e-01 7.2910964488983154e-02</leafValues></_>
    <_>
      <internalNodes>
        0 -1 75600 -1.7133590579032898e-01</internalNodes>
      <leafValues>
        4.8858433961868286e-01 -5.2358090877532959e-02</leafValues></_>
    <_>
      <internalNodes>
        0 -1 157911 2.4488987401127815e-04</internalNodes>
      <leafValues>
        -1.8969029188156128e-01 1.2198515236377716e-01</leafValues></_>
    <_>
      <internalNodes>
        0 -1 232456 -7.7653478365391493e-04</internalNodes>
      <leafValues>
        2.0473796129226685e-01 -1.1443354189395905e-01</leafValues></_>
    <_>
      <internalNodes>
        0 -1 233507 9.2792091891169548e-04</internalNodes>
      <leafValues>
        -1.1622575670480728e-01 2.2866432368755341e-01</leafValues></_>
    <_>
      <internalNodes>
        0 -1 12928 -1.1325370724080130e-04</internalNodes>
      <leafValues>
        -2.2855579853057861e-01 9.9405348300933838e-02</leafValues></_>
    <_>
      <internalNodes>
        0 -1 153 -2.3323165252804756e-02</internalNodes>
      <leafValues>
        3.0416586995124817e-01 -8.8900677859783173e-02</leafValues></_>
    <_>
      <internalNodes>
        0 -1 245855 -3.9113722741603851e-02</internalNodes>
      <leafValues>
        -6.9731420278549194e-01 2.9519559815526009e-02</leafValues></_>
    <_>
      <internalNodes>
        0 -1 196870 2.1207728423178196e-03</internalNodes>
      <leafValues>
        -6.4138688147068024e-02 3.5067316889762878e-01</leafValues></_>
    <_>
      <internalNodes>
        0 -1 296586 -5.2261531352996826e-02</internalNodes>
      <leafValues>
        3.7942254543304443e-01 -5.7739045470952988e-02</leafValues></_>
    <_>
      <internalNodes>
        0 -1 269432 -4.6038485015742481e-04</internalNodes>
      <leafValues>
        -3.2268857955932617e-01 6.5766200423240662e-02</leafValues></_>
    <_>
      <internalNodes>
        0 -1 223230 -2.2728003095835447e-03</internalNodes>
      <leafValues>
        2.6633670926094055e-01 -8.7431505322456360e-02</leafValues></_>
    <_>
      <internalNodes>
        0 -1 209617 -4.2384713888168335e-03</internalNodes>
      <leafValues>
        -4.6469277143478394e-01 5.3035348653793335e-02</leafValues></_>
    <_>
      <internalNodes>
        0 -1 224079 1.0572253959253430e-03</internalNodes>
      <leafValues>
        1.1298755556344986e-01 -2.3428575694561005e-01</leafValues></_>
    <_>
      <internalNodes>
        0 -1 14624 1.1706831865012646e-02</internalNodes>
      <leafValues>
        -9.3267820775508881e-02 2.3869073390960693e-01</leafValues></_>
    <_>
      <internalNodes>
        0 -1 179117 -6.6842623054981232e-03</internalNodes>
      <leafValues>
        4.5034608244895935e-01 -4.7176647931337357e-02</leafValues></_>
    <_>
      <internalNodes>
        0 -1 298706 -4.7549803275614977e-04</internalNodes>
      <leafValues>
        -2.6710906624794006e-01 8.0312810838222504e-02</leafValues></_>
    <_>
      <internalNodes>
        0 -1 241055 -4.5969679951667786e-02</internalNodes>
      <leafValues>
        -7.1130442619323730e-01 2.4300450459122658e-02</leafValues></_>
    <_>
      <internalNodes>
        0 -1 294600 -1.7284456407651305e-04</internalNodes>
      <leafValues>
        -1.9033011794090271e-01 1.0369806736707687e-01</leafValues></_>
    <_>
      <internalNodes>
        0 -1 136883 -5.3325889166444540e-04</internalNodes>
      <leafValues>
        1.6432014107704163e-01 -1.2410543859004974e-01</leafValues></_>
    <_>
      <internalNodes>
        0 -1 102187 1.4133064076304436e-02</internalNodes>
      <leafValues>
        -9.7985342144966125e-02 2.2230608761310577e-01</leafValues></_>
    <_>
      <internalNodes>
        0 -1 116312 -9.2713022604584694e-04</internalNodes>
      <leafValues>
        1.8363802134990692e-01 -1.2476684153079987e-01</leafValues></_>
    <_>
      <internalNodes>
        0 -1 176816 -1.3060284545645118e-03</internalNodes>
      <leafValues>
        2.5721386075019836e-01 -8.6322680115699768e-02</leafValues></_>
    <_>
      <internalNodes>
        0 -1 125300 -4.0535323321819305e-02</internalNodes>
      <leafValues>
        -6.7209708690643311e-01 3.4073945134878159e-02</leafValues></_>
    <_>
      <internalNodes>
        0 -1 264287 -3.5130901960656047e-04</internalNodes>
      <leafValues>
        -3.2012617588043213e-01 6.0482867062091827e-02</leafValues></_>
    <_>
      <internalNodes>
        0 -1 153446 -3.9322581142187119e-03</internalNodes>
      <leafValues>
        2.3360550403594971e-01 -1.0009673982858658e-01</leafValues></_>
    <_>
      <internalNodes>
        0 -1 217289 2.8661801479756832e-03</internalNodes>
      <leafValues>
        6.0373175889253616e-02 -3.9815449714660645e-01</leafValues></_>
    <_>
      <internalNodes>
        0 -1 157414 4.3746763840317726e-03</internalNodes>
      <leafValues>
        -1.8527232110500336e-01 1.2629003822803497e-01</leafValues></_>
    <_>
      <internalNodes>
        0 -1 130540 -1.2599714100360870e-02</internalNodes>
      <leafValues>
        -3.9798370003700256e-01 4.9682907760143280e-02</leafValues></_>
    <_>
      <internalNodes>
        0 -1 151783 -1.1182858143001795e-03</internalNodes>
      <leafValues>
        2.0138998329639435e-01 -1.0412048548460007e-01</leafValues></_>
    <_>
      <internalNodes>
        0 -1 161544 -1.0888115502893925e-02</internalNodes>
      <leafValues>
        -4.7035461664199829e-01 4.6765696257352829e-02</leafValues></_>
    <_>
      <internalNodes>
        0 -1 137063 -1.9945226609706879e-02</internalNodes>
      <leafValues>
        3.1044811010360718e-01 -6.6818058490753174e-02</leafValues></_>
    <_>
      <internalNodes>
        0 -1 165059 -6.0431356541812420e-04</internalNodes>
      <leafValues>
        1.6781596839427948e-01 -1.5695364773273468e-01</leafValues></_>
    <_>
      <internalNodes>
        0 -1 110278 -2.0387418568134308e-01</internalNodes>
      <leafValues>
        -7.1833872795104980e-01 2.6245476678013802e-02</leafValues></_>
    <_>
      <internalNodes>
        0 -1 278668 4.7579570673406124e-04</internalNodes>
      <leafValues>
        7.2593972086906433e-02 -2.6569437980651855e-01</leafValues></_>
    <_>
      <internalNodes>
        0 -1 252785 1.3918103650212288e-02</internalNodes>
      <leafValues>
        6.3764899969100952e-02 -3.3203738927841187e-01</leafValues></_>
    <_>
      <internalNodes>
        0 -1 199054 1.3572443276643753e-02</internalNodes>
      <leafValues>
        -8.7137915194034576e-02 2.4021637439727783e-01</leafValues></_>
    <_>
      <internalNodes>
        0 -1 220485 -2.8479553293436766e-04</internalNodes>
      <leafValues>
        -1.5755043923854828e-01 1.4925636351108551e-01</leafValues></_>
    <_>
      <internalNodes>
        0 -1 164759 -7.6125543564558029e-03</internalNodes>
      <leafValues>
        6.9442264735698700e-02 -2.9158312082290649e-01</leafValues></_>
    <_>
      <internalNodes>
        0 -1 205191 5.2367490716278553e-03</internalNodes>
      <leafValues>
        -4.5231308788061142e-02 4.8653557896614075e-01</leafValues></_>
    <_>
      <internalNodes>
        0 -1 227766 2.5525901466608047e-02</internalNodes>
      <leafValues>
        -4.1945360600948334e-02 4.9969545006752014e-01</leafValues></_>
    <_>
      <internalNodes>
        0 -1 12786 4.0263757109642029e-03</internalNodes>
      <leafValues>
        -1.0822424292564392e-01 1.9522757828235626e-01</leafValues></_>
    <_>
      <internalNodes>
        0 -1 197471 -4.1283207247033715e-04</internalNodes>
      <leafValues>
        -3.0313575267791748e-01 7.2184868156909943e-02</leafValues></_>
    <_>
      <internalNodes>
        0 -1 179043 7.3786277789622545e-04</internalNodes>
      <leafValues>
        -1.1627788841724396e-01 1.7669802904129028e-01</leafValues></_>
    <_>
      <internalNodes>
        0 -1 118976 -6.7741712555289268e-03</internalNodes>
      <leafValues>
        -5.7678037881851196e-01 3.6035399883985519e-02</leafValues></_>
    <_>
      <internalNodes>
        0 -1 99671 3.5778846591711044e-02</internalNodes>
      <leafValues>
        1.9400883466005325e-02 -8.1930899620056152e-01</leafValues></_>
    <_>
      <internalNodes>
        0 -1 277433 -1.7331998795270920e-02</internalNodes>
      <leafValues>
        2.8916099667549133e-01 -7.4803948402404785e-02</leafValues></_>
    <_>
      <internalNodes>
        0 -1 220717 -1.9091092690359801e-04</internalNodes>
      <leafValues>
        -2.8173440694808960e-01 7.4973523616790771e-02</leafValues></_>
    <_>
      <internalNodes>
        0 -1 196637 -1.3650127220898867e-03</internalNodes>
      <leafValues>
        1.4354579150676727e-01 -1.5508675575256348e-01</leafValues></_>
    <_>
      <internalNodes>
        0 -1 213137 4.2937332764267921e-03</internalNodes>
      <leafValues>
        -7.0083729922771454e-02 2.9311382770538330e-01</leafValues></_>
    <_>
      <internalNodes>
        0 -1 248190 -3.5532258450984955e-02</internalNodes>
      <leafValues>
        -7.2136282920837402e-01 2.9921278357505798e-02</leafValues></_>
    <_>
      <internalNodes>
        0 -1 42238 -1.2719163205474615e-03</internalNodes>
      <leafValues>
        1.7862752079963684e-01 -1.1281253397464752e-01</leafValues></_>
    <_>
      <internalNodes>
        0 -1 267689 1.8075134605169296e-02</internalNodes>
      <leafValues>
        2.7924215421080589e-02 -7.4425023794174194e-01</leafValues></_>
    <_>
      <internalNodes>
        0 -1 242875 -2.4604739155620337e-03</internalNodes>
      <leafValues>
        5.3706747293472290e-01 -4.1114516556262970e-02</leafValues></_>
    <_>
      <internalNodes>
        0 -1 136415 -1.2743618572130799e-03</internalNodes>
      <leafValues>
        1.2124037742614746e-01 -1.6260936856269836e-01</leafValues></_>
    <_>
      <internalNodes>
        0 -1 267570 -9.9230310297571123e-06</internalNodes>
      <leafValues>
        1.5731225907802582e-01 -1.2555196881294250e-01</leafValues></_>
    <_>
      <internalNodes>
        0 -1 25462 -2.2785039618611336e-04</internalNodes>
      <leafValues>
        -2.3589138686656952e-01 7.8572280704975128e-02</leafValues></_>
    <_>
      <internalNodes>
        0 -1 188933 4.1012852452695370e-03</internalNodes>
      <leafValues>
        -3.8854647427797318e-02 5.6129211187362671e-01</leafValues></_>
    <_>
      <internalNodes>
        0 -1 219728 1.7771035432815552e-02</internalNodes>
      <leafValues>
        -8.3248741924762726e-02 2.3158648610115051e-01</leafValues></_>
    <_>
      <internalNodes>
        0 -1 13952 -7.4050918221473694e-02</internalNodes>
      <leafValues>
        1.8402040004730225e-01 -1.1361154913902283e-01</leafValues></_>
    <_>
      <internalNodes>
        0 -1 149649 5.4718621075153351e-02</internalNodes>
      <leafValues>
        3.4322619438171387e-02 -6.6914576292037964e-01</leafValues></_></weakClassifiers></stage13>
</opencv_storage>
