<?xml version="1.0"?>
<opencv_storage>
<stage17>
  <maxWeakCount>88</maxWeakCount>
  <stageThreshold>-1.3162291049957275e+00</stageThreshold>
  <weakClassifiers>
    <_>
      <internalNodes>
        0 -1 4500 -2.0864654332399368e-02</internalNodes>
      <leafValues>
        1.9754977524280548e-01 -2.5971934199333191e-01</leafValues></_>
    <_>
      <internalNodes>
        0 -1 238203 -1.6546246479265392e-04</internalNodes>
      <leafValues>
        1.5727424621582031e-01 -1.5077202022075653e-01</leafValues></_>
    <_>
      <internalNodes>
        0 -1 268460 -3.3700496715027839e-05</internalNodes>
      <leafValues>
        1.0851273685693741e-01 -2.1866130828857422e-01</leafValues></_>
    <_>
      <internalNodes>
        0 -1 269169 -4.7004106454551220e-04</internalNodes>
      <leafValues>
        1.2369376420974731e-01 -1.7695316672325134e-01</leafValues></_>
    <_>
      <internalNodes>
        0 -1 249867 -1.3453403487801552e-02</internalNodes>
      <leafValues>
        1.3504810631275177e-01 -1.8529190123081207e-01</leafValues></_>
    <_>
      <internalNodes>
        0 -1 51438 1.4625416696071625e-01</internalNodes>
      <leafValues>
        -5.0095543265342712e-02 3.2663559913635254e-01</leafValues></_>
    <_>
      <internalNodes>
        0 -1 284997 9.3981309328228235e-04</internalNodes>
      <leafValues>
        -2.5699514150619507e-01 9.6005029976367950e-02</leafValues></_>
    <_>
      <internalNodes>
        0 -1 239188 7.3965906631201506e-04</internalNodes>
      <leafValues>
        -1.0529776662588120e-01 2.2714160382747650e-01</leafValues></_>
    <_>
      <internalNodes>
        0 -1 245743 -2.3421287536621094e-02</internalNodes>
      <leafValues>
        -6.4511740207672119e-01 5.3260188549757004e-02</leafValues></_>
    <_>
      <internalNodes>
        0 -1 205374 -3.5326986107975245e-04</internalNodes>
      <leafValues>
        -3.7146100401878357e-01 2.9004814103245735e-02</leafValues></_>
    <_>
      <internalNodes>
        0 -1 205377 -2.6608291082084179e-03</internalNodes>
      <leafValues>
        3.8516020774841309e-01 -5.6940004229545593e-02</leafValues></_>
    <_>
      <internalNodes>
        0 -1 220730 2.1679787896573544e-03</internalNodes>
      <leafValues>
        -6.2430895864963531e-02 3.5226571559906006e-01</leafValues></_>
    <_>
      <internalNodes>
        0 -1 180095 -6.2335985712707043e-03</internalNodes>
      <leafValues>
        2.8528776764869690e-01 -7.3175169527530670e-02</leafValues></_>
    <_>
      <internalNodes>
        0 -1 237919 2.7097755810245872e-04</internalNodes>
      <leafValues>
        -1.1348432302474976e-01 1.7444236576557159e-01</leafValues></_>
    <_>
      <internalNodes>
        0 -1 141162 -4.7085320693440735e-04</internalNodes>
      <leafValues>
        -2.6300591230392456e-01 8.1292375922203064e-02</leafValues></_>
    <_>
      <internalNodes>
        0 -1 293534 1.6944489907473326e-03</internalNodes>
      <leafValues>
        -5.0530642271041870e-02 4.3042835593223572e-01</leafValues></_>
    <_>
      <internalNodes>
        0 -1 213079 2.2896844893693924e-04</internalNodes>
      <leafValues>
        7.7260673046112061e-02 -2.5210750102996826e-01</leafValues></_>
    <_>
      <internalNodes>
        0 -1 213079 -1.3872043928131461e-04</internalNodes>
      <leafValues>
        -1.9763344526290894e-01 1.0696156322956085e-01</leafValues></_>
    <_>
      <internalNodes>
        0 -1 212757 2.5170021690428257e-03</internalNodes>
      <leafValues>
        -5.1182940602302551e-02 4.4658771157264709e-01</leafValues></_>
    <_>
      <internalNodes>
        0 -1 212399 2.0651281811296940e-03</internalNodes>
      <leafValues>
        -5.7916294783353806e-02 3.7916687130928040e-01</leafValues></_>
    <_>
      <internalNodes>
        0 -1 233521 7.9960306175053120e-04</internalNodes>
      <leafValues>
        -1.1328196525573730e-01 1.7024795711040497e-01</leafValues></_>
    <_>
      <internalNodes>
        0 -1 11445 -7.9069226980209351e-02</internalNodes>
      <leafValues>
        2.4150738120079041e-01 -8.3053812384605408e-02</leafValues></_>
    <_>
      <internalNodes>
        0 -1 154932 1.4199161529541016e-01</internalNodes>
      <leafValues>
        5.2918281406164169e-02 -4.4392278790473938e-01</leafValues></_>
    <_>
      <internalNodes>
        0 -1 213519 1.7017577192746103e-04</internalNodes>
      <leafValues>
        8.4837570786476135e-02 -2.1287375688552856e-01</leafValues></_>
    <_>
      <internalNodes>
        0 -1 105037 -2.4780341846053489e-05</internalNodes>
      <leafValues>
        1.1370918154716492e-01 -1.7557598650455475e-01</leafValues></_>
    <_>
      <internalNodes>
        0 -1 147586 2.0332898944616318e-02</internalNodes>
      <leafValues>
        3.5062521696090698e-02 -5.6827771663665771e-01</leafValues></_>
    <_>
      <internalNodes>
        0 -1 128 -4.9591623246669769e-02</internalNodes>
      <leafValues>
        -6.8991082906723022e-01 1.9112557172775269e-02</leafValues></_>
    <_>
      <internalNodes>
        0 -1 210250 3.7378412671387196e-03</internalNodes>
      <leafValues>
        3.7883237004280090e-02 -4.4025132060050964e-01</leafValues></_>
    <_>
      <internalNodes>
        0 -1 293534 -1.2565415818244219e-03</internalNodes>
      <leafValues>
        3.2721152901649475e-01 -5.8358009904623032e-02</leafValues></_>
    <_>
      <internalNodes>
        0 -1 235421 4.4230506755411625e-03</internalNodes>
      <leafValues>
        -3.0724743381142616e-02 5.3701215982437134e-01</leafValues></_>
    <_>
      <internalNodes>
        0 -1 176820 1.6205783467739820e-03</internalNodes>
      <leafValues>
        -7.6654739677906036e-02 2.3204363882541656e-01</leafValues></_>
    <_>
      <internalNodes>
        0 -1 176820 -5.7454849593341351e-04</internalNodes>
      <leafValues>
        2.2139056026935577e-01 -1.0356167703866959e-01</leafValues></_>
    <_>
      <internalNodes>
        0 -1 205130 2.5438563898205757e-04</internalNodes>
      <leafValues>
        8.0119356513023376e-02 -2.3365271091461182e-01</leafValues></_>
    <_>
      <internalNodes>
        0 -1 205128 -1.6447760572191328e-04</internalNodes>
      <leafValues>
        -2.6630049943923950e-01 6.7189529538154602e-02</leafValues></_>
    <_>
      <internalNodes>
        0 -1 196949 -3.6353860050439835e-03</internalNodes>
      <leafValues>
        2.3279370367527008e-01 -8.0460615456104279e-02</leafValues></_>
    <_>
      <internalNodes>
        0 -1 151807 -5.3394250571727753e-03</internalNodes>
      <leafValues>
        2.0997077226638794e-01 -8.1593014299869537e-02</leafValues></_>
    <_>
      <internalNodes>
        0 -1 264288 -3.0921120196580887e-04</internalNodes>
      <leafValues>
        1.5943500399589539e-01 -1.1133903264999390e-01</leafValues></_>
    <_>
      <internalNodes>
        0 -1 277504 -2.1405372535809875e-05</internalNodes>
      <leafValues>
        1.0239259153604507e-01 -1.7483852803707123e-01</leafValues></_>
    <_>
      <internalNodes>
        0 -1 108384 -1.6259759431704879e-03</internalNodes>
      <leafValues>
        9.8398081958293915e-02 -1.7212037742137909e-01</leafValues></_>
    <_>
      <internalNodes>
        0 -1 108977 -4.2957032565027475e-04</internalNodes>
      <leafValues>
        -2.8117915987968445e-01 6.9603398442268372e-02</leafValues></_>
    <_>
      <internalNodes>
        0 -1 46440 9.7004398703575134e-03</internalNodes>
      <leafValues>
        -4.1693385690450668e-02 3.9719498157501221e-01</leafValues></_>
    <_>
      <internalNodes>
        0 -1 258766 -1.0253105312585831e-02</internalNodes>
      <leafValues>
        -2.7175447344779968e-01 6.3697420060634613e-02</leafValues></_>
    <_>
      <internalNodes>
        0 -1 108981 3.6467658355832100e-04</internalNodes>
      <leafValues>
        7.0413634181022644e-02 -2.2549073398113251e-01</leafValues></_>
    <_>
      <internalNodes>
        0 -1 210257 2.4158505257219076e-03</internalNodes>
      <leafValues>
        -9.2787727713584900e-02 1.8992041051387787e-01</leafValues></_>
    <_>
      <internalNodes>
        0 -1 201576 -3.2951743341982365e-03</internalNodes>
      <leafValues>
        -3.5978248715400696e-01 4.9414020031690598e-02</leafValues></_>
    <_>
      <internalNodes>
        0 -1 159261 -1.0943435881927144e-05</internalNodes>
      <leafValues>
        1.3394492864608765e-01 -1.2916909158229828e-01</leafValues></_>
    <_>
      <internalNodes>
        0 -1 157904 -2.2209107555681840e-05</internalNodes>
      <leafValues>
        9.4641521573066711e-02 -1.7867457866668701e-01</leafValues></_>
    <_>
      <internalNodes>
        0 -1 229564 2.8184433467686176e-03</internalNodes>
      <leafValues>
        -5.5823273956775665e-02 3.3738392591476440e-01</leafValues></_>
    <_>
      <internalNodes>
        0 -1 255973 3.4181896597146988e-02</internalNodes>
      <leafValues>
        2.0966516807675362e-02 -8.6387979984283447e-01</leafValues></_>
    <_>
      <internalNodes>
        0 -1 37803 -3.5356718581169844e-04</internalNodes>
      <leafValues>
        -2.0691514015197754e-01 8.4508575499057770e-02</leafValues></_>
    <_>
      <internalNodes>
        0 -1 177476 -5.4944492876529694e-04</internalNodes>
      <leafValues>
        2.0703029632568359e-01 -8.5790388286113739e-02</leafValues></_>
    <_>
      <internalNodes>
        0 -1 165966 1.9358446588739753e-03</internalNodes>
      <leafValues>
        -1.0683438926935196e-01 1.8250192701816559e-01</leafValues></_>
    <_>
      <internalNodes>
        0 -1 255287 1.6536810435354710e-03</internalNodes>
      <leafValues>
        -1.6437028348445892e-01 1.0933598130941391e-01</leafValues></_>
    <_>
      <internalNodes>
        0 -1 247674 9.2201982624828815e-04</internalNodes>
      <leafValues>
        -1.2885473668575287e-01 1.3451641798019409e-01</leafValues></_>
    <_>
      <internalNodes>
        0 -1 240621 7.3371909093111753e-04</internalNodes>
      <leafValues>
        -8.9709438383579254e-02 1.9995199143886566e-01</leafValues></_>
    <_>
      <internalNodes>
        0 -1 189878 3.4351348876953125e-02</internalNodes>
      <leafValues>
        -6.2080800533294678e-02 3.0002805590629578e-01</leafValues></_>
    <_>
      <internalNodes>
        0 -1 233926 5.3628318011760712e-02</internalNodes>
      <leafValues>
        3.0761362984776497e-02 -7.1182084083557129e-01</leafValues></_>
    <_>
      <internalNodes>
        0 -1 271412 -6.9007527781650424e-04</internalNodes>
      <leafValues>
        -3.1602823734283447e-01 5.0653364509344101e-02</leafValues></_>
    <_>
      <internalNodes>
        0 -1 295887 -2.5709229521453381e-03</internalNodes>
      <leafValues>
        5.1924937963485718e-01 -3.0980650335550308e-02</leafValues></_>
    <_>
      <internalNodes>
        0 -1 298575 -3.6521081347018480e-04</internalNodes>
      <leafValues>
        -2.4413102865219116e-01 7.1004189550876617e-02</leafValues></_>
    <_>
      <internalNodes>
        0 -1 148689 7.3135178536176682e-03</internalNodes>
      <leafValues>
        4.0544711053371429e-02 -3.9567488431930542e-01</leafValues></_>
    <_>
      <internalNodes>
        0 -1 145349 -1.0481427125341725e-05</internalNodes>
      <leafValues>
        1.3347706198692322e-01 -1.2597426772117615e-01</leafValues></_>
    <_>
      <internalNodes>
        0 -1 172460 -4.8536872491240501e-03</internalNodes>
      <leafValues>
        2.6144394278526306e-01 -7.1340270340442657e-02</leafValues></_>
    <_>
      <internalNodes>
        0 -1 58372 -7.0369049906730652e-02</internalNodes>
      <leafValues>
        -6.5284478664398193e-01 2.4981910362839699e-02</leafValues></_>
    <_>
      <internalNodes>
        0 -1 176576 1.9595947116613388e-02</internalNodes>
      <leafValues>
        -8.8333785533905029e-02 2.0217815041542053e-01</leafValues></_>
    <_>
      <internalNodes>
        0 -1 151149 5.1631832320708781e-05</internalNodes>
      <leafValues>
        1.1088744550943375e-01 -1.6880200803279877e-01</leafValues></_>
    <_>
      <internalNodes>
        0 -1 182986 -1.0045495582744479e-03</internalNodes>
      <leafValues>
        1.5256763994693756e-01 -1.2380078434944153e-01</leafValues></_>
    <_>
      <internalNodes>
        0 -1 166767 -1.0886440577451140e-04</internalNodes>
      <leafValues>
        1.0892044752836227e-01 -1.6289833188056946e-01</leafValues></_>
    <_>
      <internalNodes>
        0 -1 224901 -2.0806740969419479e-02</internalNodes>
      <leafValues>
        -5.9756135940551758e-01 2.7827814221382141e-02</leafValues></_>
    <_>
      <internalNodes>
        0 -1 196193 -2.7253263397142291e-04</internalNodes>
      <leafValues>
        -1.4818482100963593e-01 1.1784139275550842e-01</leafValues></_>
    <_>
      <internalNodes>
        0 -1 156569 -1.0576864704489708e-02</internalNodes>
      <leafValues>
        -2.3339237272739410e-01 7.8020915389060974e-02</leafValues></_>
    <_>
      <internalNodes>
        0 -1 158831 -4.9031738191843033e-02</internalNodes>
      <leafValues>
        1.7465081810951233e-01 -1.0146963596343994e-01</leafValues></_>
    <_>
      <internalNodes>
        0 -1 212545 -6.4733447507023811e-03</internalNodes>
      <leafValues>
        1.4753156900405884e-01 -1.3683037459850311e-01</leafValues></_>
    <_>
      <internalNodes>
        0 -1 4923 -1.7376644909381866e-01</internalNodes>
      <leafValues>
        1.5903051197528839e-01 -1.1631976068019867e-01</leafValues></_>
    <_>
      <internalNodes>
        0 -1 139653 -2.0088240853510797e-04</internalNodes>
      <leafValues>
        1.4584638178348541e-01 -1.3959077000617981e-01</leafValues></_>
    <_>
      <internalNodes>
        0 -1 215896 3.7361769936978817e-03</internalNodes>
      <leafValues>
        -5.4608453065156937e-02 3.3343943953514099e-01</leafValues></_>
    <_>
      <internalNodes>
        0 -1 44600 -1.8905757460743189e-03</internalNodes>
      <leafValues>
        1.6626273095607758e-01 -9.9999956786632538e-02</leafValues></_>
    <_>
      <internalNodes>
        0 -1 220943 1.7399236094206572e-04</internalNodes>
      <leafValues>
        7.8191310167312622e-02 -2.2136765718460083e-01</leafValues></_>
    <_>
      <internalNodes>
        0 -1 204484 -2.1920934319496155e-02</internalNodes>
      <leafValues>
        2.3899775743484497e-01 -8.0063663423061371e-02</leafValues></_>
    <_>
      <internalNodes>
        0 -1 227618 -1.9862002227455378e-04</internalNodes>
      <leafValues>
        -1.7846947908401489e-01 1.1490330100059509e-01</leafValues></_>
    <_>
      <internalNodes>
        0 -1 288202 -3.4582889638841152e-03</internalNodes>
      <leafValues>
        7.2774159908294678e-01 -2.3664498701691628e-02</leafValues></_>
    <_>
      <internalNodes>
        0 -1 274687 -1.1449204757809639e-03</internalNodes>
      <leafValues>
        -2.3715928196907043e-01 7.3477916419506073e-02</leafValues></_>
    <_>
      <internalNodes>
        0 -1 296597 6.2328536063432693e-02</internalNodes>
      <leafValues>
        2.3947732523083687e-02 -6.2159812450408936e-01</leafValues></_>
    <_>
      <internalNodes>
        0 -1 59407 2.4329364299774170e-02</internalNodes>
      <leafValues>
        1.6502363607287407e-02 -8.0629098415374756e-01</leafValues></_>
    <_>
      <internalNodes>
        0 -1 293105 -1.9847112707793713e-03</internalNodes>
      <leafValues>
        4.6726462244987488e-01 -4.1731461882591248e-02</leafValues></_>
    <_>
      <internalNodes>
        0 -1 167515 -1.3008412206545472e-03</internalNodes>
      <leafValues>
        2.7902886271476746e-01 -5.3677607327699661e-02</leafValues></_>
    <_>
      <internalNodes>
        0 -1 96007 3.4539762418717146e-04</internalNodes>
      <leafValues>
        -1.0184767097234726e-01 1.5476381778717041e-01</leafValues></_>
    <_>
      <internalNodes>
        0 -1 189171 -3.8239243440330029e-03</internalNodes>
      <leafValues>
        2.7307009696960449e-01 -5.9617437422275543e-02</leafValues></_></weakClassifiers></stage17>
</opencv_storage>
